S0.null	-0.00084467	-0.014485	-0.0012721	0.040016	-0.0015860	-0.0074673	0.011306	-0.0070591	0.000024546	0.0072687	-0.012859	-0.013623	0.027843	0.021924	0.014402	-0.0094716	-0.025040	-0.017925	0.010959	-0.0065399	-0.028082	-0.0038855	0.013160	0.0091094	0.0097333	0.039526	0.0040300	0.015975	-0.042274	-0.0069437	0.018931	-0.0079361	-0.017889	-0.0026669	0.026993	-0.014447	-0.0030985	0.049583	0.019133	0.051163	0.0020587	0.0012275	-0.0060023	-0.036698	-0.020297	-0.0012853	-0.011595	0.028269	-0.0052991	0.022888	-0.019300	0.034396	0.0040702	-0.024141	0.0022078	-0.017023	0.020977	-0.016469	-0.014806	0.0022750	-0.0028129	0.034051	-0.013953	0.030573	0.046401	0.0057307	0.043322	-0.037891	-0.0061378	0.016424	0.024410	0.013984	0.025252	-0.028670	0.0049425	0.018484	-0.019798	-0.021776	-0.0099956	-0.00042368	0.021307	0.012934	-0.016521	0.035939	-0.0020267	-0.048914	0.0090728	0.0032395	-0.00060051	0.0086188	-0.0035990	0.035486	-0.0021383	-0.019534	0.0019546	0.0073985	0.022737	0.013631	-0.011364	-0.026939	0.018568	-0.013703	0.016383	-0.031681	0.027684	0.020077	-0.0018862	-0.0078955	0.0077796	-0.025973	-0.00030120	-0.030584	-0.027615	0.0054562	-0.023425	-0.018124	-0.0040076	0.057703	0.0057006	-0.0097116	-0.0053970	0.0082101	0.024356	0.011870	0.018096	-0.015367	-0.016805	0.018439	0.016225	0.023044	0.0016206	0.0092523	-0.0045582	-0.032809	0.011502	-0.0020164	-0.040683	-0.026542	-0.0083400	0.041503	-0.0017455	0.00014942	0.0093510	-0.019702	0.034630	0.051803	-0.00050337	-0.0035494	0.019836	-0.0079779	-0.0053694	-0.021994	0.00093741	-0.035830	-0.029623	0.0028492	-0.0083485	-0.0071194	-0.033126	-0.028202	-0.0027202	-0.026537	-0.014312	-0.020103	0.020859	-0.0084120	-0.020135	0.0022064	-0.019101	-0.025018	0.0021152	-0.035696	0.00022298	0.044840	-0.020924	-0.022650	-0.019442	-0.018584	-0.0023211	0.059678	0.021260	-0.017233	0.023416	0.015170	-0.026986	0.0071017	0.011460	0.00023646	-0.038520	-0.041596	-0.030120	0.040454	0.0053831	0.0085765	-0.012164	-0.027828	0.0085630	-0.0032867	0.011792	-0.026852	0.00091440	-0.010850	0.011427	-0.0012663	-0.0024528	0.0030942	0.047556	-0.00087520	0.012938	0.0057609	0.0022024	-0.021016	-0.024856	-0.010255	0.029637	-0.013667	-0.014376	-0.00066534	0.011814	-0.030288	0.036928	-0.018113	0.033138	-0.014401	-0.017209	0.040027	-0.015666	-0.033312	-0.013999	0.032472	0.0031104	-0.0075919	0.0095504	0.023458	0.024384	0.011622	-0.014874	-0.013365	-0.0048747	-0.0059030	0.018617	-0.0078366	-0.019581	0.00032122	0.016370	0.0019190	0.016447	-0.021354	-0.012462	0.035043	-0.0042837	0.020137	0.0067185	-0.0088293	-0.0070494	0.012997	-0.022066	0.0045839	-0.028342	0.0017803	-0.013092	-0.014803	-0.00095024	0.00079082	0.00014378	0.0094751	0.0010761	0.0020661	0.014202	-0.0025291	-0.0043654	0.00018630	0.0018373	-0.0093346	0.0042247	-0.0092130	0.079429
S1.null	-0.025114	0.016328	-0.010804	0.030340	0.0081915	-0.020473	0.0029216	-0.0024370	0.0073508	0.0079749	0.012742	-0.019655	0.028154	-0.025565	-0.012135	0.0051206	-0.021090	-0.023949	-0.023825	-0.028244	-0.026246	-0.018702	0.010168	-0.015157	0.016026	-0.013872	0.030518	0.028391	-0.0034412	-0.0033313	0.011543	-0.022529	0.0042031	0.039410	0.020811	-0.0089756	0.040224	-0.0012875	-0.0013534	-0.0082118	-0.0049793	-0.0078746	-0.016545	-0.00094343	0.020240	0.010976	0.0064183	0.042690	-0.0032474	-0.014605	-0.038530	0.019847	-0.0097397	0.018909	0.0083256	0.0012017	0.029606	-0.011963	-0.0015623	0.0033810	0.018192	0.021375	0.018129	0.0016552	0.012465	-0.011649	0.016421	-0.055936	-0.012452	0.031050	-0.0075760	0.020981	0.0076705	-0.0025077	0.0031667	-0.0029254	-0.0055930	-0.025717	0.0080701	0.0076181	0.0034558	-0.0029370	0.036732	0.034447	-0.0079982	-0.017481	0.00045660	0.010614	0.014575	0.014488	0.022659	-0.020954	-0.013620	0.013555	-0.012258	0.0058257	0.0032427	0.011491	0.018785	-0.0059289	-0.013471	0.0047033	0.0083675	0.018387	-0.0027474	-0.011331	-0.020315	-0.0097866	0.028210	0.025976	-0.028489	-0.016167	-0.041716	-0.038981	0.012986	0.010188	-0.012277	-0.020307	-0.0094705	0.015299	-0.0096259	0.034266	0.061449	0.0091678	-0.0064952	0.0087293	-0.0056623	-0.0088929	-0.0050151	-0.023816	0.012582	-0.013701	0.011418	0.021245	-0.029271	-0.010369	0.012604	0.021419	-0.0039456	0.018373	-0.012856	-0.024532	0.011285	0.030853	0.024590	0.0032225	0.025153	0.0023398	0.018620	0.0024514	0.054380	0.045718	0.019523	0.027038	0.021782	0.010374	0.016314	-0.0088972	0.012335	0.015848	-0.0074127	0.046708	0.0089861	-0.0018422	0.010174	-0.020223	0.028152	0.010713	-0.0028504	-0.010306	-0.012231	0.019282	-0.017185	0.054257	-0.026199	-0.014801	0.027752	0.0037726	0.031057	-0.010562	0.021624	0.0023243	-0.0022888	0.024191	0.039829	0.013399	-0.0067766	-0.0047239	0.019302	-0.0098565	0.0023760	0.0026415	0.0023404	-0.023486	-0.015552	-0.026867	-0.012374	-0.019254	-0.012196	0.0075499	0.035137	-0.0024837	0.026366	0.010187	-0.074940	-0.023613	-0.015315	-0.015779	-0.012982	0.029991	0.022251	-0.0022257	-0.022305	0.021753	0.0042474	0.017744	0.032334	0.030536	0.017102	0.0034634	0.017285	-0.023020	0.0017527	0.0045912	-0.037781	0.051123	-0.032709	-0.00020815	0.0040350	0.0039596	-0.0048324	0.021497	0.039688	0.0071249	-0.0074654	-0.0083618	-0.026642	0.0028633	-0.010315	-0.0022227	-0.0010563	0.0044633	-0.0077924	0.0056537	-0.022022	-0.020777	-0.023494	0.0064702	0.0068473	0.025289	0.0016936	0.016353	-0.028941	0.024688	0.018145	0.010018	-0.011268	-0.0016324	-0.0060613	0.0080899	0.021747	-0.0092337	0.0027434	0.010018	-0.0058138	-0.00023677	-0.0048686	-0.014590	0.0013424	-0.00052986	-0.0093488	-0.0038316	0.0059505	0.014276	-0.0073341	-0.0025704	-0.037017
S2.null	-0.0021801	-0.029633	-0.0012556	-0.010028	-0.019581	0.0028244	-0.028918	-0.0085516	0.0087591	0.0088204	0.022791	0.036571	0.031007	-0.027840	-0.0091353	-0.026284	0.0047372	0.029462	0.012103	-0.0026852	0.011927	0.015713	0.027177	0.031388	0.0069611	0.012808	0.0028346	-0.0080668	0.016234	0.0047651	0.014190	-0.016526	0.033235	-0.015763	0.044014	0.0046253	0.0026281	-0.045646	-0.020189	-0.00091878	0.047359	-0.012262	-0.0018677	-0.011494	0.0084752	0.017329	0.012201	0.0012623	0.026108	0.025174	-0.017047	0.022869	-0.031226	0.031704	-0.013078	0.030912	0.010801	0.034350	-0.032633	-0.022424	-0.0023248	-0.034083	0.016199	0.016286	0.0080290	-0.010821	0.013770	-0.0056211	0.014852	0.013576	0.0043226	-0.00059543	-0.0068254	0.0038339	-0.031027	0.0072084	-0.012672	0.0032496	-0.016289	-0.0065554	-0.0086977	0.042918	0.015111	-0.0031717	-0.016586	0.0055123	-0.034447	0.0070307	-0.0022824	0.015200	0.023639	0.0087195	0.00060045	-0.039320	0.025026	0.0095351	-0.020566	-0.011977	-0.0039431	-0.044071	-0.00028939	0.033614	-0.029151	0.0098279	0.0092097	0.014612	0.013170	-0.0075568	0.064347	-0.0087419	0.013713	0.0037614	-0.0081482	0.0055830	0.015780	-0.024651	0.013149	0.012801	0.021113	-0.0078028	-0.017743	0.019658	-0.015307	0.042784	-0.015012	-0.028589	0.0092373	-0.019868	0.018615	0.023099	-0.024943	0.0073437	0.010385	-0.0038842	-0.0021246	-0.0046588	0.043511	-0.00027052	-0.0013827	0.014500	0.0086399	0.030514	-0.013779	0.014246	0.028359	-0.035293	-0.0092360	-0.029335	0.013749	0.018852	-0.0089749	-0.0097542	0.0070844	0.0021066	0.036472	-0.013209	0.0011203	0.012456	0.010626	0.0075105	-0.0025065	-0.013492	-0.012039	0.010953	-0.0060139	0.011058	0.0034776	-0.00065694	0.011917	-0.024113	-0.0088747	0.025428	-0.010461	0.00017360	-0.033696	-0.012932	0.010044	-0.00088133	0.034366	0.028773	-0.021509	0.022439	-0.011678	-0.015088	0.035444	-0.0091660	-0.0077941	0.027261	0.021430	-0.021021	-0.0015310	0.030409	0.020226	-0.041848	-0.031066	-0.0099063	0.026692	0.0035955	0.019120	0.0062106	0.0076043	-0.011076	0.0018675	-0.0078804	0.026116	0.011817	-0.036116	0.014930	0.037815	-0.0014157	-0.031547	0.014530	-0.0014186	-0.021242	0.042149	-0.018591	-0.011843	-0.0027934	-0.0031609	0.0064803	0.024209	-0.040027	0.0061133	-0.013848	-0.0047536	-0.0020422	-0.034217	-0.014870	-0.023040	0.0040566	0.041915	-0.016035	0.020091	0.0050364	0.036065	-0.017488	-0.011865	-0.019260	-0.0038857	-0.0015987	0.056644	0.0071904	0.032181	-0.022931	-0.000069053	0.0077340	0.0013135	0.024111	0.0074713	0.0042011	0.0095087	-0.019454	-0.00064366	-0.0013361	0.011202	-0.0085365	-0.017230	-0.011441	0.018727	0.032901	-0.027561	0.039230	0.011470	-0.075405	0.0029984	-0.032242	-0.018027	-0.021408	-0.0017779	0.015306	-0.0077235	0.0020989	0.011434	-0.012311	0.012188	-0.0051178	0.040579
S3.null	-0.033260	0.0022724	-0.0016678	0.025091	0.034452	-0.016522	0.0051974	0.016452	0.011698	-0.00043391	0.011091	0.0078272	0.0017195	0.00076339	0.022731	0.035788	-0.027232	-0.036891	-0.019556	-0.010355	0.0085819	-0.0073407	-0.017872	-0.019782	-0.0067596	-0.0081667	-0.016736	-0.022526	-0.0048155	-0.010220	-0.00010218	-0.010387	-0.0095548	-0.0065796	-0.035475	-0.0014972	0.0095255	-0.0087976	-0.0089665	0.0022036	-0.023117	0.017950	-0.055805	-0.0014964	-0.011542	0.0050051	-0.0023253	0.0053154	0.010265	0.0035677	-0.0049353	-0.019462	0.0057972	0.012520	0.019814	-0.050766	-0.011289	-0.042337	-0.021110	-0.0049363	-0.010662	0.0055296	-0.021108	0.00070537	0.018137	-0.0092388	0.036665	0.025931	0.018386	-0.028927	-0.0029873	0.031497	0.0077753	-0.018832	0.0039094	-0.012881	0.0030269	0.024939	0.0068475	0.0031298	-0.011279	-0.0074626	-0.0098223	0.0084965	-0.0062840	-0.0087939	0.0053625	0.039728	-0.0058220	-0.0071474	-0.00090061	0.0058971	0.057420	0.0097296	-0.033976	-0.011824	-0.0016180	0.0018878	-0.0059621	0.0086393	-0.0091994	-0.023568	0.026582	0.0045000	0.0062014	-0.031970	0.0091666	0.0054463	-0.032652	-0.017681	-0.027138	-0.0064301	-0.0030598	0.016156	-0.048188	0.018019	-0.011322	-0.0057655	-0.017523	-0.0059153	-0.0084830	0.014011	0.0082144	-0.00080902	-0.0048562	0.00013639	-0.0057660	0.032295	0.00044212	-0.022660	0.030016	-0.0082814	-0.021338	0.035594	-0.0050443	0.0025096	-0.010222	-0.0069604	0.0076165	-0.0093462	0.018938	-0.022790	-0.015275	-0.0068471	0.00031750	0.0029424	-0.0020615	0.0069070	0.0054477	-0.022265	0.021184	0.0079203	-0.029486	0.0030903	-0.020137	0.022329	-0.018792	-0.0018473	-0.011021	-0.020249	0.014007	0.025128	-0.019859	-0.022646	0.0070740	-0.0097872	-0.017700	-0.018775	0.0020373	-0.012818	0.0090477	-0.015971	0.016279	-0.026943	0.0096868	-0.0089582	0.0086477	-0.022669	-0.0049879	-0.022744	-0.019167	-0.020871	0.031668	-0.0087606	-0.015486	0.0038597	0.0049856	0.010885	-0.035221	0.023513	0.022382	-0.030418	-0.0049230	0.019269	0.041518	0.019562	-0.0093740	0.0036712	-0.012869	0.0011535	-0.032861	-0.0074082	0.012662	0.0010658	-0.038877	-0.045961	-0.020518	-0.0036747	-0.043477	0.019278	0.037929	-0.0050295	0.034825	0.055358	-0.00035931	0.015078	0.014057	0.032407	-0.0080012	-0.00048605	-0.017708	0.0026941	-0.046498	0.025006	0.011477	0.0036947	-0.0076966	0.0063193	0.0091891	-0.014830	-0.020654	0.024563	-0.0064866	-0.024609	-0.065523	0.00093158	0.0043074	0.030125	-0.012910	-0.013320	-0.021507	-0.023550	-0.013725	0.016047	-0.015483	-0.012173	-0.015107	0.0057217	0.015806	0.0029018	0.010103	-0.0050080	0.016574	0.014415	-0.0088066	0.0074016	-0.010418	0.014664	-0.0062287	-0.022953	0.010088	-0.051216	0.026934	0.039984	-0.030576	0.036247	0.0087488	-0.0049713	-0.0077289	-0.0047178	0.0096446	0.0066595	0.014413	0.0088661	0.0015127	-0.0061805	0.018897
S4.null	0.0089416	0.047267	0.018472	-0.019554	-0.010843	0.0043037	0.024255	0.0091975	-0.021149	-0.0077645	-0.021243	-0.028835	-0.0012947	0.039297	0.0095050	-0.0039189	0.0051145	0.000038267	-0.015495	0.0052752	-0.014291	-0.013049	-0.031281	-0.017248	-0.017230	-0.0079325	-0.0025933	-0.0064023	0.0018703	-0.015584	-0.034612	0.015144	-0.020837	0.020818	-0.0099101	-0.0092186	0.0033690	0.029517	0.013940	0.011885	-0.024860	-0.0097263	0.028623	0.0085701	0.000077548	-0.014415	-0.013517	0.014341	-0.025812	-0.0078924	0.030225	-0.0091370	0.025528	-0.036468	0.0026623	0.018470	-0.0063093	-0.017195	0.039586	0.022515	0.014224	0.028032	0.0020957	-0.015593	-0.025601	-0.0030654	-0.043006	0.00016694	-0.034343	0.015645	0.012552	-0.0067029	-0.00027558	0.013841	0.028619	0.011198	0.023423	-0.0063072	0.015307	0.0049505	0.0028627	-0.0032838	-0.00085299	0.014295	0.00080056	-0.0052298	0.017768	-0.030386	0.028803	-0.014348	0.0071368	-0.014328	-0.050975	0.018438	0.0050948	0.011437	0.0083369	0.017843	-0.0060847	0.050514	0.017086	-0.0098861	0.0073847	0.0061601	-0.012350	0.0041017	-0.038893	0.0043505	-0.025688	0.024322	0.022698	0.024136	0.029877	-0.0089079	0.0043195	0.034210	0.022268	0.0034140	-0.0094354	0.023485	0.044167	-0.0062994	0.0074843	-0.017548	0.023697	0.025725	-0.0035779	-0.0085228	-0.032831	-0.035675	-0.037118	-0.0075951	0.011003	-0.0026630	-0.0031581	-0.0059330	-0.00019543	-0.0094483	0.0020971	0.00050729	-0.041562	-0.019346	0.023066	-0.0094309	0.011081	0.031514	0.017007	0.014797	-0.021983	-0.014113	-0.0049066	0.0076603	0.00055814	0.0022485	0.0096690	0.0091975	0.018619	-0.014079	0.0065586	-0.0049079	-0.0065195	0.00042039	-0.00090302	0.0076906	0.0032748	0.019540	0.010796	-0.00027904	-0.031453	0.020758	0.0049949	-0.0049080	0.0098012	-0.021803	0.025260	0.0076199	-0.0035795	0.0093067	-0.030785	-0.0076930	0.021817	-0.016413	0.0025954	-0.0084979	-0.020692	0.014069	0.024418	0.0036804	-0.0069338	0.027333	-0.023452	-0.0081209	-0.019641	0.016572	-0.011197	0.012359	-0.025674	0.0079890	0.018715	-0.010607	0.00038449	-0.0042686	0.0075966	-0.0079326	-0.0020703	0.015340	0.0093384	-0.020022	0.0080203	-0.015101	-0.011377	-0.020419	-0.019728	-0.017922	-0.040495	0.0056438	-0.00082995	-0.018353	0.010753	0.012846	-0.025169	0.0036973	0.020230	0.018587	-0.021890	0.016493	0.010910	-0.0011355	0.014457	0.020152	-0.042867	-0.016390	-0.020214	0.013079	0.0085179	0.020982	-0.0098489	0.0041403	0.021390	0.024434	-0.035728	0.0017297	-0.016030	0.025636	0.00029023	-0.027984	-0.010510	0.0012618	-0.012621	-0.020640	-0.028699	0.013533	-0.035917	-0.0076425	-0.00014911	-0.011644	0.023177	0.027792	-0.0095860	0.0086471	0.015550	-0.0025076	-0.032991	0.031299	0.030223	-0.014494	0.00052465	0.010775	-0.0043381	-0.026067	-0.013601	0.0052253	-0.019291	0.011575	-0.011360	0.014358	-0.11418
S5.null	0.027070	0.030800	-0.027359	0.023522	0.036008	-0.0018815	-0.0078515	0.013936	0.00051655	0.015513	0.013951	-0.013883	-0.013685	0.0092915	0.0069633	0.016495	0.014892	-0.029507	0.0080941	-0.015901	-0.00069187	-0.015489	-0.037198	-0.026593	-0.0045466	-0.0079233	0.014880	-0.0094533	-0.017117	-0.0051075	-0.00050010	-0.0022687	-0.029249	0.024128	-0.038545	0.014424	-0.015602	0.023818	0.0024858	-0.016786	-0.017588	0.0045132	0.0089701	-0.020005	-0.026116	-0.017132	0.011362	-0.012635	-0.039418	-0.022982	-0.000038875	-0.026606	0.020066	-0.014476	0.0037478	-0.028027	-0.012237	-0.021932	0.026355	0.0033794	-0.0062970	0.0082292	-0.020535	-0.016085	-0.017034	-0.0034187	-0.022206	-0.014484	-0.011070	-0.010412	-0.0076885	0.0013151	0.0041324	0.019699	-5.7147E-7	-0.021706	0.0065575	0.0077548	0.021981	-0.0032502	-0.0051400	-0.0025229	-0.023865	0.029865	0.042707	-0.013334	0.024291	-0.00070306	0.014196	0.016708	0.0083022	-0.014655	0.015078	0.033091	-0.026483	-0.0089825	0.010910	0.0072850	-0.017649	0.038388	-0.0030070	0.0034983	0.052681	-0.010162	-0.016447	-0.015610	-0.0065882	-0.0069692	-0.034380	-0.0023918	0.017060	-0.0026019	-0.016021	-0.0090569	-0.020800	0.034988	0.0053498	-0.041168	-0.019196	0.00043945	-0.0083391	0.015150	0.021253	-0.011859	0.019097	0.0071640	-0.021827	0.0048605	0.0035965	-0.030270	-0.0025939	-0.019806	-0.0020999	0.023217	-0.0080186	-0.0054075	-0.014368	0.024172	0.000011014	-0.024726	0.00073798	-0.030852	-0.0060815	0.0011304	-0.025345	0.0083945	0.030658	0.00092360	-0.010482	-0.0089306	-0.00015489	0.016591	0.015603	-0.0066081	-0.014283	-0.00043181	0.0035439	-0.027815	-0.011552	-0.017424	0.0091680	-0.014880	-0.011819	0.019465	0.022064	0.016430	-0.0091981	0.0053447	-0.025376	0.022323	-0.0042821	-0.0022201	0.021716	0.00075534	0.020597	0.0086770	0.0037785	0.0051082	-0.014674	-0.030776	0.025434	-0.0071788	0.017152	0.024033	-0.0078070	0.017448	0.013786	-0.032162	-0.0082538	0.041718	-0.019602	-0.021255	-0.0051705	0.031160	0.010512	0.020749	0.0046802	0.0077075	-0.016518	0.010790	-0.0034451	0.016161	0.013380	-0.014499	-0.0085002	-0.0039740	0.014126	-0.0098099	-0.033213	0.0094955	0.031592	-0.0038723	-0.052300	-0.0010887	-0.019791	0.014841	0.0033721	-0.010545	-0.0015874	-0.033582	-0.029590	0.033092	0.010984	0.0044004	-0.0086472	0.028831	-0.00090441	-0.016246	-0.0068797	-0.0069046	-0.016174	0.0099362	-0.0027469	-0.0050414	-0.022761	0.00026529	0.029708	0.027076	-0.0080959	-0.00085769	-0.029436	0.010791	0.031004	-0.0010843	0.014706	0.0058603	0.020199	0.0011659	0.0021490	-0.029685	-0.036503	0.014720	-0.0040108	-0.017950	-0.026276	0.012556	-0.0049265	0.023783	0.017160	-0.00065228	0.00087350	-0.032792	0.030208	0.011016	-0.030954	0.049939	0.030081	0.010430	-0.019069	0.0022171	-0.017416	0.0073037	-0.017267	-0.0029644	-0.012215	-0.0012530	0.074905
S6.null	-0.0080453	0.044896	0.021986	-0.0029146	0.00074641	-0.038708	-0.0076468	-0.0024488	-0.0015212	0.020785	-0.019557	-0.014350	0.019442	0.040460	0.017464	0.0032331	-0.019687	-0.0069017	-0.010701	-0.014865	0.0019779	0.0036973	-0.0041340	-0.0051555	-0.024884	-0.014004	0.026469	0.023813	-0.0046079	-0.0098348	-0.019664	-0.0052904	-0.0084917	-0.017368	0.019032	-0.0016457	-0.0010548	0.032904	-0.021777	0.00017676	-0.023055	-0.0081043	0.014916	-0.012172	0.012117	0.0082676	0.020048	-0.016847	0.038191	-0.017888	-0.035156	-0.0041893	-0.037366	-0.0086320	-0.033345	-0.026013	-0.034039	-0.0031823	0.0069015	-0.015772	0.039454	0.024373	-0.019454	-0.0046726	-0.0071480	0.022950	-0.015156	0.013688	-0.027186	-0.0069617	-0.0051811	0.015126	0.0078667	0.011215	0.018178	-0.0027046	0.014783	-0.038301	-0.014119	-0.018170	-0.0044437	0.0063898	0.018548	-0.0019071	0.023644	-0.010081	0.054246	-0.0082929	0.019491	-0.000011238	0.0011932	-0.0064059	-0.012837	0.0078681	-0.015351	0.028179	0.013339	0.021486	0.027658	0.0044521	0.00027335	-0.028441	0.0041928	-0.018123	0.0059222	0.0083036	0.017045	-0.022786	-0.021400	0.021001	0.012879	-0.0058096	-0.0010908	0.025606	-0.0088773	-0.013228	0.0096896	-0.028984	-0.027714	0.023512	0.035371	0.018193	-0.0057615	0.0010025	0.011113	0.0066913	0.0067393	-0.0062482	-0.010102	-0.020348	0.0079245	-0.034510	0.036194	0.021720	0.044528	0.012398	0.021180	0.020790	0.032261	0.0041674	0.000066287	-0.015771	-0.0088165	-0.027187	-0.029214	0.022083	-0.0064808	0.016055	-0.013661	-0.021511	-0.010441	0.010267	-0.011097	0.014415	0.011841	0.0092844	-0.011966	-0.025788	0.0033051	-0.016245	-0.020715	-0.0030909	0.029180	0.017464	0.033268	0.0059676	-0.00029136	-0.027928	-0.019625	-0.025940	0.026587	-0.0025081	0.0065106	-0.024891	0.0078393	0.0082837	0.011825	-0.0030367	0.0065355	0.013074	-0.0028770	0.0087496	0.021722	0.015847	0.010979	-0.014075	0.0036122	0.0074913	0.030623	-0.0037655	-0.025573	-0.0086307	-0.010356	0.0030517	0.0033909	0.0088921	0.033755	0.015394	0.010841	0.0060366	-0.019097	-0.020874	-0.029228	0.010238	0.038347	0.00045187	0.0087263	0.0028802	-0.011347	0.0081453	0.024912	0.0012733	-0.022420	0.024502	-0.0026091	-0.030732	-0.00059406	-0.018043	0.010786	-0.012316	-0.032713	0.014449	-0.0056523	0.0072983	0.013581	-0.029158	0.041470	-0.0045894	0.013223	0.011106	0.032064	-0.043644	0.010466	-0.020111	-0.0025521	-0.000049916	0.017579	-0.037075	-0.046766	-0.029173	-0.0026378	-0.011735	-0.00013912	0.028036	-0.032490	-0.021901	-0.014603	-0.0084848	-0.0081002	0.0097807	-0.0088417	0.014317	0.00038998	0.014005	0.0015183	-0.0086418	0.023719	-0.015765	0.0040385	-0.0031269	0.012221	-0.010042	-0.0039436	-0.014697	0.00072052	-0.0066791	0.0020267	-0.0075942	-0.0033272	-0.0076492	0.0015225	0.0092275	-0.00032382	-0.041011	-0.021145	-0.13287	0.19179
S7.null	0.014187	0.0026204	0.0091848	-0.012022	-0.016158	-0.022469	-0.050596	0.015048	0.0018621	0.000024580	0.0022943	0.048010	-0.019806	-0.013095	0.016471	0.0094041	-0.0080542	-0.012955	0.0081003	0.035731	0.0033742	0.0039832	0.017905	0.010707	0.0048579	0.016331	-0.015617	-0.011079	-0.010841	-0.010319	-0.0062689	0.013604	-0.0014418	-0.0055455	0.0052708	0.018516	0.016489	0.012179	-0.021058	0.0055389	0.0060744	-0.0025774	0.012740	-0.018293	0.011733	0.0071421	-0.0018735	-0.017388	0.011107	-0.0073214	-0.0094010	-0.025383	-0.012488	-0.042997	0.031915	-0.050336	0.0090862	0.037145	-0.020033	0.023560	-0.029643	0.016587	0.019795	0.013365	0.0093344	-0.010165	-0.0086240	-0.00075124	0.00068037	-0.0056248	0.012662	0.00054647	-0.012990	-0.0027335	-0.031051	0.035398	-0.0042414	0.010916	-0.045113	-0.017071	0.038045	0.045117	-0.00036281	-0.0017565	-0.010444	0.0069453	-0.055957	-0.020758	0.020230	-0.0096157	-0.029945	-0.0078123	-0.032290	0.0028739	-0.00087989	0.023730	0.015715	0.023955	-0.0081466	0.011397	-0.040831	-0.029733	0.0061195	-0.016481	-0.020248	0.013790	-0.00045304	0.0077357	0.027953	-0.017537	0.020391	-0.016037	0.050155	-0.0098240	-0.0092490	0.029125	-0.0060942	-0.024896	0.0044094	-0.012522	0.021321	-0.031128	-0.038577	-0.0052690	0.0090833	0.000062005	0.011351	-0.023672	-0.010856	0.037693	-0.034358	-0.027629	0.018848	0.0065581	0.031124	0.025158	0.012587	0.0075718	0.0053947	-0.0039559	0.021628	-0.033031	-0.0018790	-0.015978	-0.0067426	-0.018768	0.047494	-0.000027167	-0.014488	0.0094313	0.0060679	-0.015154	0.0055057	0.031225	-0.021871	-0.016249	-0.0052225	0.046161	-0.024751	-0.032091	-0.011485	-0.0038608	0.0062008	-0.023058	0.022522	0.031390	0.012316	-0.014338	0.020195	0.014870	-0.018466	0.0055791	0.025826	-0.015793	-0.0089515	0.0032713	-0.0083070	-0.0056734	0.029004	-0.012491	-0.027213	0.019923	-0.0010838	-0.0070240	0.029436	0.013712	0.0040975	0.021941	0.0014655	-0.019927	-0.019182	0.029817	0.013631	-0.0088775	0.0051786	-0.0085206	0.0070667	0.0043478	-0.018400	0.022055	-0.029614	0.016597	0.017236	0.0026952	0.023257	0.0080531	0.035845	-0.015480	-0.033285	0.037504	0.024379	-0.00071610	-0.036458	0.020546	-0.023110	0.022406	0.011001	-0.0064636	0.013488	-0.0028635	-0.024789	0.0082231	0.061089	-0.0063650	-0.0084586	-0.023079	0.029930	-0.017975	0.036071	-0.0059344	0.010592	0.023957	0.014737	0.035457	0.0066058	-0.036344	-0.049380	-0.037996	0.018032	0.023658	-0.028732	0.0070970	-0.039010	0.018788	0.019289	-0.027086	-0.010871	-0.0041629	-0.012659	-0.010307	-0.0058185	0.026752	0.010119	0.012292	-0.013983	0.0062078	0.030673	0.024115	-0.021124	0.022014	0.012302	0.012265	0.0037254	-0.012021	-0.019002	0.012863	-0.0045933	-0.0041622	-0.014982	0.000035679	-0.014865	0.00041014	-0.012978	0.0058320	0.010111	0.011363	0.54711
S8.null	0.0085420	-0.0058188	0.0095971	-0.010382	-0.022208	-0.0051731	-0.064246	0.028209	0.0053415	0.014571	-0.0084404	0.013936	-0.015131	-0.00085907	0.00096685	-0.0081097	0.0026262	-0.018979	0.0084488	-0.014838	-0.0043719	-0.0072410	0.015192	-0.0091181	0.0088762	0.028800	-0.034240	-0.017264	0.0020466	-0.014219	-0.012181	0.022088	0.013570	-0.033234	0.0012561	0.019500	0.0023139	0.013788	-0.0011841	0.010779	-0.0064929	0.0090774	0.0086486	-0.022251	0.0053455	-0.0063386	0.026457	-0.014729	0.0076714	0.0012170	-0.025181	-0.030351	-0.016179	-0.022254	0.017236	-0.038175	0.012920	0.028693	-0.041468	0.029843	-0.023812	0.0019895	0.030683	-0.016440	0.022253	-0.028066	0.012892	-0.019626	-0.0042824	-0.010349	0.0059203	0.0027565	-0.020885	0.00011690	-0.045357	0.039544	-0.021522	0.028002	-0.058868	0.019401	0.058584	0.011436	-0.0060025	0.0019848	0.0062416	0.0012691	-0.041810	-0.0053516	0.0050840	-0.0051162	0.0017340	-0.012339	-0.023636	0.0031289	-0.0017477	0.0015460	-0.0067088	0.018283	0.023374	-0.0064278	-0.042798	-0.0095407	0.010101	0.012180	0.0078246	0.0095834	-0.014962	-0.0014282	0.0062498	-0.0098328	0.0051558	0.0088146	0.054852	0.0022657	-0.013257	0.047151	-0.016940	-0.026266	-0.0050972	-0.0018315	-0.013395	0.013172	-0.019440	0.029613	-0.0055489	0.0085639	-0.0073941	-0.028231	-0.021669	0.024298	0.010931	-0.028187	0.038636	0.013430	0.031176	0.026964	0.016396	0.033448	0.012241	-0.026454	0.0091483	-0.0069246	0.011906	-0.020121	-0.031360	-0.033981	0.022076	0.00084370	-0.017972	0.014062	0.021942	-0.0026926	0.015962	0.043710	-0.030265	-0.011621	0.0089252	-0.0014090	-0.013968	-0.0046330	-0.0068713	-0.0020564	-0.014278	-0.031599	0.022781	0.0052970	0.014356	0.012047	0.015779	0.026815	-0.037331	0.023707	0.046206	-0.011986	-0.0032031	-0.023076	-0.00069625	-0.0071114	0.0058402	-0.0024834	-0.019787	0.049331	-0.00044236	-0.027689	0.016995	0.022055	0.00049969	0.031133	-0.0066731	-0.030647	-0.0055618	0.0058581	0.019846	-0.016406	-0.0068012	-0.014391	0.00076631	-0.032615	0.0018849	-0.0062066	-0.026831	-0.014822	-0.035179	0.037064	0.0086309	-0.0017141	0.0021237	-0.029208	-0.012029	0.027506	0.012407	-0.0051092	-0.0090273	0.0086942	-0.013409	-0.013076	0.018401	0.046133	0.00011173	0.010677	0.022395	0.015277	0.0072194	0.014829	-0.0095789	-0.0081546	-0.025283	0.00071217	-0.0078333	-0.013503	-0.0095801	0.0088446	0.0096800	0.026444	-0.014764	-0.0049873	-0.027944	-0.0045350	-0.0052720	0.0026025	-0.027032	-0.0034790	-0.0047907	-0.0067414	-0.0059628	-0.010357	-0.0093657	-0.0048023	0.0091567	-0.013057	-0.015761	0.010783	0.021998	0.00088134	-0.024483	-0.013667	-0.0036631	0.020026	-0.015046	0.0023646	0.0034736	0.0093298	-0.0051551	-0.0073351	-0.0081070	-0.0063760	-0.010981	0.0086939	-0.0015564	-0.0068620	-0.0046193	0.0084629	-0.0072556	0.010538	0.0020184	0.014056	-0.030146
S9.null	-0.0070021	-0.0010658	-0.012767	0.0083337	-0.0098621	-0.0094218	0.011100	-0.0057672	-0.026200	0.0062595	-0.0019339	-0.010163	0.052774	0.018074	0.032373	-0.011314	-0.049964	-0.022128	0.0052302	0.0015657	-0.045839	-0.019721	0.0092708	0.028591	0.0070576	0.0012197	-0.0041315	0.011702	0.056855	-0.0078614	-0.034200	-0.043762	0.019977	-0.025031	0.0068213	-0.0064519	0.042919	-0.0017613	-0.014508	0.0063101	-0.0039662	-0.018272	-0.013179	-0.032489	0.055829	0.013762	0.020447	0.0023659	-0.0092992	-0.012785	0.018912	0.0083515	0.0029438	-0.013479	0.0027066	0.011134	0.017627	-0.00077336	0.037331	0.020037	-0.013409	-0.0064947	-0.020849	0.018830	0.014434	0.018554	-0.028416	0.0010259	0.017634	-0.019290	0.0044125	-0.0087224	-0.036833	0.012124	0.00086004	0.042334	-0.0036116	-0.00013766	0.019273	0.015623	0.0097118	-0.019573	0.0087267	-0.025389	-0.0041730	0.010050	-0.061348	0.0036102	0.016083	0.012082	0.043792	0.0086919	0.013165	-0.023673	0.0029819	-0.029419	0.010684	0.060587	0.028132	-0.0084688	0.015569	0.023789	0.032378	-0.0043245	-0.0032629	0.00039932	0.010718	-0.014591	0.0025786	-0.0067700	0.011490	-0.00039857	0.010471	-0.021640	0.016857	0.010780	0.028130	-0.015679	0.0084541	0.010938	0.020309	-0.016461	0.0055026	0.034288	-0.026231	-0.023861	-0.0080752	0.022264	-0.0032787	-0.028638	0.0016553	0.019652	0.029639	-0.020820	0.033856	-0.0074839	0.013947	-0.0028032	-0.0023028	0.0017284	-0.0031731	0.0090340	0.023719	-0.012631	0.016990	0.045315	-0.015297	-0.0059092	0.029560	0.029562	-0.0088136	0.0063691	-0.0039885	-0.0019701	-0.0084216	0.015231	0.0052061	0.0095601	-0.024844	0.011846	0.031877	-0.025903	-0.026650	0.021130	0.010433	-0.018053	0.035344	-0.0040234	-0.0020559	-0.012874	0.021266	-0.010018	-0.033026	0.036513	-0.020684	0.021225	-0.0090581	-0.015552	0.012428	0.0054841	-0.0032212	-0.013374	0.017450	-0.026838	0.00078690	-0.029989	0.017383	-0.00086612	0.0082064	-0.040579	0.0098802	0.0087912	0.025412	-0.013369	-0.011981	0.0048513	0.0017900	-0.010961	-0.022804	-0.0062621	0.0094088	0.027005	-0.0063754	-0.031578	0.012547	-0.0057860	0.030390	-0.019483	-0.026054	0.024482	-0.010694	-0.0092928	-0.015355	0.0022229	0.026018	-0.017827	0.0053156	-0.0079281	-0.019113	-0.014472	-0.0084713	0.016364	0.015752	0.015501	-0.0078793	0.023897	-0.018118	0.014943	0.0048862	0.024701	0.0081086	-0.013410	-0.0091717	-0.013624	-0.0041538	-0.018740	0.0065547	0.0075045	-0.0033876	-0.017157	0.00045335	-0.012320	-0.00056130	-0.0099880	-0.028605	0.012922	-0.015128	0.0036105	0.010192	0.0041534	0.012878	0.0029924	0.031749	0.00053115	0.021383	0.0061044	0.020083	-0.018855	0.0035296	0.0081565	0.015432	-0.0091374	0.0025793	0.011775	-0.0082854	-0.012980	-0.0088667	-0.032212	0.0084977	0.00069554	-0.0062369	-0.0035742	0.019236	-0.013763	-0.0070242	0.015493	-0.14306
S10.null	-0.019917	0.016733	-0.0018856	-0.017963	-0.0021637	0.0024985	0.012627	-0.021274	0.011374	0.043680	0.014059	-0.015260	0.0019052	0.0027623	-0.00016289	-0.0077561	0.023142	0.031885	-0.014369	0.0047259	-0.0031147	-0.036862	0.034435	-0.0050583	0.032653	-0.0073446	0.036437	-0.0056512	0.012868	0.047926	0.0056159	-0.00076557	-0.0069627	0.011238	0.0062409	0.00028918	0.016278	-0.010855	0.037510	-0.017567	-0.0022416	-0.018655	0.010025	0.022107	0.0026166	0.018877	-0.011905	0.011231	0.0060618	0.023986	0.023427	-0.034420	-0.0061516	-0.033589	0.018206	-0.012703	0.0068208	-0.025645	-0.018556	-0.0066229	0.0020223	0.020767	0.0044070	-0.026993	0.037884	-0.012917	0.023304	-0.021392	0.010705	0.018624	-0.019058	-0.022539	-0.029030	-0.023666	0.0065264	0.015023	0.022299	-0.043902	-0.014799	0.0046805	-0.021241	-0.024279	0.0034668	0.019444	0.045943	0.016327	0.0063214	0.0045028	-0.021068	-0.019306	0.023532	0.019447	-0.021731	0.0032785	-0.0070755	0.0089124	0.020671	-0.017163	-0.017510	0.00014966	0.019344	0.0050898	-0.022201	0.0036063	-0.0086577	-0.011717	-0.0041773	0.018706	0.0010410	0.035858	-0.0015421	-0.010373	-0.00031390	0.032707	0.00028319	0.018764	0.015508	0.033908	-0.013347	0.022111	-0.021346	-0.022930	-0.00067591	-0.0015821	-0.019506	0.041631	-0.0036831	0.017856	-0.034861	0.010362	-0.0092684	0.010444	-0.0012696	0.0031901	0.033489	-0.010825	0.031416	0.011666	-0.029005	-0.028977	-0.0097408	-0.016701	0.0057252	-0.011111	0.0082807	-0.049809	0.015285	-0.074466	-0.022020	-0.00068419	-0.0026076	-0.0045460	-0.037554	0.0060111	-0.0099253	0.017561	-0.0037236	-0.020247	0.037010	-0.00017352	-0.027185	0.012474	0.041944	0.047251	-0.013398	-0.024307	-0.0016992	0.016946	0.012023	-0.00065380	-0.0078043	-0.015298	0.018888	-0.0086383	0.018255	0.0025700	0.013889	0.0013392	0.0078114	-0.0037551	0.027218	0.010654	-0.025522	0.0091091	-0.035686	-0.0048195	0.0047169	-0.0068611	-0.022914	-0.038768	0.028958	0.018192	-0.023444	-0.038581	-0.016608	-0.0016530	-0.039076	0.0063281	0.014389	-0.0061083	-0.030775	-0.032378	-0.0015588	-0.0063676	-0.0096924	0.0016115	0.024155	-0.012713	-0.012601	-0.029183	-0.0084937	0.0054800	0.020759	-0.0027631	0.038829	-0.044886	0.057997	-0.013129	0.0047680	0.028147	0.023834	-0.024839	-0.0080691	0.039441	0.015526	-0.013276	-0.011822	0.030318	0.012870	-0.0023799	-0.015767	-0.0050093	-0.0018253	0.0091744	-0.0098639	-0.000076567	0.0015008	0.018645	0.032369	0.0014973	0.012974	-0.018006	-0.019657	0.0050999	0.0090836	0.019511	0.0061823	0.0079252	-0.0082948	0.0081640	-0.0086066	-0.0046917	-0.017969	0.012346	0.027366	-0.0015265	0.0090447	0.00076727	-0.037818	0.021582	-0.0064410	0.041770	-0.032264	-0.038645	0.020519	-0.043319	-0.026418	0.020331	0.0038406	-0.00061106	0.013036	-0.0045318	-0.0056247	-0.0025744	0.0074487	0.0029685	-0.14889
S11.null	0.0036430	-0.040956	0.014602	0.034713	-0.015535	0.012832	-0.014239	0.034361	-0.0093536	0.025293	-0.043375	0.0098138	-0.010767	-0.0099872	0.0064833	-0.011179	0.010175	-0.011378	-0.018147	0.026398	0.028446	-0.0097168	-0.048773	-0.021747	-0.0015503	-0.013399	0.014909	-0.013768	-0.0015358	0.019590	0.0012677	0.010350	0.0011113	-0.017205	-0.010918	0.024954	-0.016611	0.0011765	0.0095013	0.011832	0.011122	0.000037932	-0.0042923	-0.0089279	-0.0039127	-0.0010748	-0.0041309	0.018465	-0.021046	0.011941	0.015589	0.0092386	-0.032878	-0.0037325	0.0015136	-0.019012	-0.010871	-0.0027620	-0.031622	0.0057008	-0.019942	-0.024688	-0.019607	-0.014632	0.0033009	-0.011323	-0.012190	-0.016338	0.0019507	0.010701	0.0060149	0.035034	-0.0087517	0.0083340	0.037752	-0.015855	-0.024692	0.00018449	0.018846	0.0021215	-0.021476	0.0042166	-0.0087993	-0.016046	0.0023504	0.018418	0.031509	0.020000	-0.00022757	0.0014801	-0.027289	-0.011311	0.015822	0.041238	-0.012491	0.0098651	0.0063864	0.013920	0.0073740	-0.0043116	-0.036058	-0.038989	-0.026234	0.021352	-0.0047478	0.0025125	-0.0079033	0.035032	0.0096516	0.020299	-0.0074279	-0.017134	0.011421	-0.021248	0.0099992	0.014362	-0.0044239	0.015751	0.015468	0.011725	-0.015638	0.017656	-0.012171	0.052275	0.017882	-0.032177	-0.0019944	-0.014519	0.048437	0.0043085	0.0037992	0.020758	-0.031231	0.0078032	0.011208	-0.0032517	0.0050808	0.019657	-0.0041215	-0.018140	-0.0040052	0.0098953	0.017114	-0.020184	-0.033925	-0.0011458	-0.012830	0.020949	-0.011467	-0.029473	0.020346	-0.011004	0.030994	-0.0038173	0.012759	-0.0086142	-0.016370	-0.015521	-0.0037011	0.012608	0.022303	0.014584	0.018195	0.019861	-0.0065411	-0.0074681	0.00052325	-0.0016052	-0.0041020	-0.015375	0.0048656	-0.014813	0.012210	-0.054152	-0.031196	-0.0064581	-0.021084	0.0050988	-0.0077180	0.012609	0.014660	-0.0022007	-0.038548	-0.0073190	-0.011074	0.033165	-0.046548	0.029124	-0.032100	-0.013706	0.042247	0.025706	0.0063366	0.036657	0.030670	-0.0085660	-0.027272	0.010318	0.0037315	0.048475	0.0079807	-0.027760	0.0018897	-0.010520	-0.0031934	-0.015672	0.0033201	-0.0050402	-0.000030535	0.036247	-0.0046707	-0.0042298	-0.012711	-0.0018557	-0.0028355	-0.0041843	-0.016682	0.018900	-0.011022	-0.014438	0.024292	-0.024945	-0.028305	0.0084549	-0.012882	-0.0075156	0.0096838	0.0052351	0.014615	-0.022203	0.0053268	-0.027382	0.00097317	-0.0069249	0.0059597	-0.035795	-0.024880	-0.0074289	0.00064305	0.024636	-0.032424	-0.011123	-0.035442	0.0066189	-0.012739	0.0037040	-0.0023014	-0.012261	-0.010269	0.014079	0.016302	0.000059920	-0.016939	-0.000027255	-0.021993	0.0074150	0.015788	0.0033727	0.015381	0.0026093	-0.011923	-0.0026199	-0.0077319	0.0037644	0.012473	0.018956	-0.0040459	-0.0060814	0.00039018	0.021195	0.0013654	0.012121	0.0048164	-0.0011985	0.0061600	-0.0039154	-0.35006
S12.null	0.010417	-0.017451	0.019742	0.036056	0.017517	0.036636	0.0081201	0.024296	0.0028782	-0.047880	-0.034060	-0.023356	-0.018828	0.013916	-0.014856	-0.0074788	0.0057902	0.011252	-0.000028336	0.025839	-0.015294	0.018315	-0.0039512	0.018901	0.023863	-0.0010071	-0.022399	0.020082	-0.015867	0.0061029	0.014193	0.0059311	-0.012646	0.010275	-0.036072	0.0076240	-0.0053133	0.0057783	-0.0027224	0.0054888	0.022695	0.00041081	0.020972	0.0050904	-0.036064	0.026679	-0.013411	0.017382	0.010133	-0.021528	0.021375	-0.0079486	0.0023906	-0.0014001	-0.049764	-0.047270	0.026652	-0.0074406	0.0013873	0.0026100	-0.035733	0.00046534	0.011945	-0.025692	-0.015529	0.010851	0.00065904	-0.016803	0.017866	0.014064	0.013755	-0.00089191	-0.0025661	-0.0061137	-0.011544	-0.025696	0.038599	-0.0056629	0.0023211	-0.049766	0.023272	-0.00030915	-0.0020757	0.026372	0.017195	0.012667	-0.0072613	0.0056947	0.051302	-0.027385	0.0075846	-0.015562	-0.0094321	0.021569	0.025314	0.0036760	-0.0086236	-0.00041936	-0.013161	-0.011758	0.012179	0.014049	0.010126	-0.011532	0.022337	0.0046802	-0.0073888	0.0026420	-0.0096318	0.0056005	0.018135	-0.021020	0.021677	0.041486	0.011116	0.011332	-0.0075411	0.0055734	-0.0042131	0.0047784	0.028221	0.027347	0.0070915	-0.0042718	0.0060919	-0.0068748	-0.018208	0.0058014	0.012489	-0.014362	0.0020593	-0.010261	0.016532	0.010222	0.0048142	-0.035391	-0.016689	0.00028983	0.018102	0.014706	-0.0037716	0.030202	0.023595	0.029458	0.037977	0.023075	0.010899	0.027964	-0.0050429	-0.012106	0.035221	-0.012957	-0.021409	-0.0073453	0.010139	-0.027131	0.0031298	0.035959	0.014872	-0.014005	-0.015988	-0.0095165	-0.010327	0.032821	0.031947	0.0059825	-0.00017937	0.025755	0.015360	-0.036715	-0.0073868	-0.013281	0.017346	0.013473	-0.011294	-0.017999	-0.013178	0.0092526	-0.0098174	0.048317	0.012222	-0.00064681	-0.013543	0.021743	0.029389	-0.023970	0.019033	0.0084514	-0.0026520	-0.010267	-0.030815	-0.0054589	0.012113	0.0075849	0.031209	-0.028675	-0.012550	0.0024904	-0.012912	0.018939	0.032062	0.012403	0.022250	-0.0043794	0.036936	-0.010055	0.018119	-0.0077029	0.014564	0.013426	0.019780	-0.0043392	-0.0044609	0.019120	-0.0087764	0.017529	-0.0044358	0.032642	0.013301	0.010534	-0.034419	0.012151	-0.0045036	-0.016268	-0.011774	-0.029059	0.013104	0.012023	-0.0059122	-0.015772	-0.016912	-0.027668	-0.012225	0.034641	0.014248	-0.017793	-0.019634	-0.011937	0.025303	-0.011216	0.0039490	0.020455	0.0019225	-0.012462	0.0052223	-0.0090260	0.0062382	0.013879	-0.0025006	-0.013310	0.0045209	0.0073918	-0.0010999	-0.012134	-0.010392	-0.0087739	-0.0096261	0.015339	0.017846	-0.0063011	-0.031330	0.045195	-0.019599	0.032720	-0.055162	-0.020927	0.0016361	0.0031276	0.019487	0.0046492	0.034800	-0.0026839	0.13751	-0.0091223	0.051299	-0.011027	0.21861
S13.null	0.012466	-0.018346	0.020972	0.034008	0.012007	0.029757	0.0023717	0.029528	-0.0019516	-0.046086	-0.043850	-0.023319	-0.0091355	0.011835	-0.012711	-0.0038121	0.011850	0.0043478	0.0083507	0.025946	0.00010944	0.0012791	-0.0050406	0.0060786	0.018688	-0.0060527	-0.019077	0.020351	-0.024448	-0.0019709	0.026034	-0.0033617	-0.025305	0.014014	-0.030082	-0.0010813	-0.0018406	0.0068002	0.0043411	0.0054813	0.025778	0.016630	0.017102	0.012295	-0.034086	0.010617	-0.022022	0.024965	0.022663	-0.033883	0.0072506	0.0096911	-0.00061333	0.00064260	-0.050692	-0.034437	0.0090094	-0.0061894	0.018685	0.011122	-0.033754	0.010541	0.0033315	-0.026306	0.0094733	0.0029328	-0.017856	-0.016095	0.012176	0.0097587	0.0092543	0.017241	-0.0068638	0.00067621	-0.0093428	-0.0030638	0.036389	0.012881	0.0090243	-0.030560	0.0063195	0.0077968	0.0028559	0.030249	0.011678	-0.0090418	-0.029318	0.019154	0.038000	-0.036089	-0.0045448	0.0053433	-0.0061008	0.015100	0.040368	0.028258	-0.023364	0.0044093	0.0035036	-0.022262	-0.0013359	0.014104	-0.0038747	-0.011404	0.026006	-0.014588	-0.0048934	-0.0073358	-0.0074878	-0.0031320	0.0025928	-0.019980	0.0097575	0.038233	-0.0081195	-0.0044769	0.0087953	-0.011418	0.0032741	-0.014694	0.033936	-0.0052934	-0.0010255	0.013338	0.013465	0.0047329	-0.0091222	0.036449	-0.0048184	-0.0026456	-0.015747	-0.022529	0.020213	0.0083962	0.014201	-0.021546	-0.011622	-0.010746	0.012885	0.020273	-0.018432	0.0096978	0.0088660	0.033113	0.048435	0.019310	0.0079560	0.020703	-0.0044890	-0.019328	0.039955	0.0013995	-0.026426	0.0098524	0.037498	-0.014643	0.013335	0.039630	0.022165	0.0012126	-0.013374	0.0069835	0.011451	0.043147	0.027450	0.034117	-0.0012549	0.0010729	0.030432	-0.052502	0.0021933	-0.010985	0.0078513	-0.0050885	0.0091988	-0.035813	0.0036116	0.0077629	0.00011256	0.023987	0.0055788	-0.031918	-0.015554	0.041238	0.026831	-0.014647	0.029002	0.010303	0.0070145	-0.022515	-0.0059872	-0.024137	0.012174	0.027528	0.037784	0.0033846	0.0043145	0.0070941	-0.033465	0.0037994	0.025625	0.019891	0.032981	-0.0023939	0.027385	-0.0030678	0.015241	0.0027924	0.0029703	0.0012407	0.0033650	-0.0029496	-0.022611	0.013495	0.0050002	-0.019577	0.0026730	0.020036	0.0048708	0.025110	-0.031246	0.013511	-0.010074	-0.012536	-0.015697	-0.0075844	0.026002	-0.0076180	-0.017594	-0.033167	0.016400	-0.041098	-0.0017819	0.026237	0.0086651	0.012189	0.0057665	-0.020092	0.0057085	-0.0069689	0.024114	0.021274	0.018595	-0.012063	0.0034554	-0.018654	0.011637	0.014149	-0.0092204	-0.00064540	0.0077613	-0.0050093	-0.021919	-0.011110	0.0088198	0.0067983	-0.018719	0.024276	0.028287	-0.010685	-0.0075122	0.037671	-0.014661	0.048724	-0.047241	-0.018303	-0.0040673	0.0082940	0.0014413	0.019140	0.0018456	-0.0062895	0.019788	0.0062486	-0.014868	-0.0018028	0.34880
S14.null	0.013907	-0.010292	0.018534	0.035257	0.017908	0.038917	0.0035005	0.027085	0.00096608	-0.048748	-0.037120	-0.025226	-0.014168	0.014710	-0.0095033	-0.0041842	0.0062342	0.015221	0.0022633	0.015936	-0.012167	0.0085258	-0.0061800	0.010431	0.027855	0.00022802	-0.014256	0.026778	-0.0047407	0.0098768	0.012933	0.011092	-0.018695	0.0036690	-0.032233	0.013641	-0.0053276	0.011700	0.011621	0.0068915	0.020330	0.0030683	0.024373	0.0098855	-0.040897	0.023459	-0.0087453	0.014431	0.011945	-0.019119	0.019739	-0.0026737	0.0080192	0.0098256	-0.056443	-0.044474	0.014172	-0.019016	0.0085699	0.0067757	-0.029680	-0.0082206	0.011970	-0.027825	-0.0085913	0.011766	-0.016584	-0.024857	0.017455	0.0097254	0.014086	0.0020660	-0.015968	-0.0095357	-0.0059269	-0.013098	0.047404	0.0047233	0.00041740	-0.043476	0.023454	0.0073996	0.0014185	0.032264	0.018011	0.018730	-0.0084928	0.012411	0.057361	-0.028308	-0.0012736	-0.0062606	-0.0061155	0.022544	0.033178	0.0093996	0.0026014	0.0072467	-0.00028077	-0.014243	0.0081795	0.010481	0.010535	-0.0066455	0.017520	0.00030012	0.0056283	0.0059569	-0.011237	0.0038865	0.012419	-0.019080	0.016561	0.046274	0.00067282	0.0033118	-0.0049028	-0.0030046	-0.017879	0.0012586	0.022036	0.020937	0.018044	0.0097364	0.0060601	0.0048381	-0.015025	0.024200	0.013471	-0.0073737	-0.0051904	-0.010975	0.011007	0.011406	0.018683	-0.021517	-0.016494	0.011486	0.032675	0.023603	-0.0056497	0.014909	0.0092513	0.018310	0.031668	0.025720	0.0097405	0.032082	0.0065598	-0.0093853	0.036854	-0.015859	-0.019753	-0.015373	0.029695	-0.020016	-0.0016990	0.042722	-0.0059950	-0.011432	-0.014662	-0.0042613	-0.0048849	0.027380	0.031586	0.018508	0.0015374	0.021676	0.016783	-0.047444	-0.0073493	-0.018597	0.00040605	0.0089933	-0.0012523	-0.023218	-0.021399	0.0027973	0.0040858	0.044533	0.014955	-0.0096072	-0.010076	0.017111	0.027280	-0.028065	0.017021	0.0089874	-0.015491	-0.013522	-0.032261	0.0023504	0.013012	-0.00041351	0.028616	-0.037072	-0.0041104	0.0071347	-0.012748	0.012850	0.028489	0.016936	0.020741	-0.0080049	0.023574	-0.0072881	0.023223	0.0047999	-0.0022487	0.016483	0.016554	-0.0026976	-0.011096	0.0058079	0.0017239	0.017613	0.00024452	0.019494	0.017300	0.012997	-0.036043	0.0099491	0.0066340	-0.0097469	0.014397	-0.026245	0.012890	-0.0019524	0.0043040	-0.012655	-0.0086155	-0.020080	-0.0060314	0.024861	0.0065690	0.0030385	-0.016451	-0.013724	0.019109	-0.021527	0.00017771	0.022131	-0.0012287	-0.0051628	0.014300	0.0010384	-0.0021736	0.022093	-0.015067	-0.0045147	0.013803	0.0031512	0.0026157	-0.0078232	-0.0085987	0.0072387	-0.010119	0.018171	0.016669	0.010889	-0.012524	0.085770	0.026198	0.056190	-0.031034	-0.014393	0.0065431	-0.017866	0.044889	0.010609	0.080697	-0.0086824	0.027484	0.000082063	-0.0051080	-0.0030724	-0.36756
S15.null	-0.051645	0.010691	-0.015755	-0.0089604	0.010330	0.00016209	0.00020509	-0.010305	0.034007	0.00083870	0.0017294	0.017696	-0.017707	-0.0064346	0.0023559	0.010259	-0.013887	-0.0059473	0.0076293	0.011021	0.0093683	0.028120	-0.0031096	-0.0010083	0.010963	-0.0067330	-0.010135	-0.012175	-0.0024269	0.0029502	-0.0026670	0.020132	-0.0050750	0.018030	-0.016876	-0.0053189	0.0083950	-0.0016907	0.023620	-0.0082696	-0.0071240	0.010686	-0.0044099	-0.037221	-0.0055571	0.025073	0.019596	-0.0047683	0.0094381	-0.0088889	-0.019626	0.0090983	-0.00047840	0.024249	0.016057	0.0069424	-0.011489	0.017789	-0.0024992	-0.018321	-0.0059762	-0.041711	-0.0083991	0.011759	-0.023264	-0.013264	-0.015699	0.025002	-0.0017086	0.0066883	-0.021932	-0.0095269	0.025253	0.016456	-0.0061665	-0.0095736	-0.0051922	0.014324	-0.020760	0.011210	0.0034783	-0.010046	0.0040746	0.012485	0.015424	-0.0042418	0.0011673	0.017072	0.013811	0.017970	0.018472	-0.0012185	-0.0024131	0.000030281	0.012793	-0.0040351	-0.0035653	-0.010762	-0.021890	0.012655	0.0074421	-0.033097	0.00038197	0.010653	-0.000047283	0.011318	0.026752	-0.0037920	0.0099645	-0.016195	-0.0059209	0.021917	-0.026314	-0.0089814	0.0061516	0.0075688	0.0021443	-0.018436	-0.022680	-0.018695	0.0022636	0.0077715	-0.030698	-0.020276	0.0067005	0.022234	0.022728	0.0090419	-0.014398	-0.0019357	0.0059921	0.013516	-0.010997	-0.0056296	-0.021065	-0.020706	-0.018074	-0.021140	-0.0010646	0.026598	0.011065	-0.0023244	-0.0043779	0.029717	0.012874	-0.031867	0.0057343	-0.023718	-0.018239	-0.0076523	-0.0078041	0.010478	-0.020618	0.026875	-0.017177	0.0049326	0.0082615	-0.014027	0.0088803	-0.021214	-0.018031	-0.0049220	-0.032475	-0.0044747	-0.0020711	-0.014022	0.020924	-0.026528	-0.021061	-0.013614	-0.038969	0.0010233	0.0038222	0.010515	0.0024825	0.0066248	-0.00033929	-0.0026660	-0.00092757	-0.050038	-0.0050666	0.010745	-0.0098612	-0.031050	0.025190	-0.00099109	0.020444	0.027920	0.011022	0.0026610	-0.023263	-0.0027309	0.0051247	0.0033068	-0.022175	-0.0013501	0.0016007	-0.0030130	0.015970	-0.029317	0.015673	-0.015408	0.0034793	-0.013017	0.013074	0.016879	-0.018326	-0.016348	0.020071	0.012686	-0.0065952	0.011197	-0.027579	-0.016899	-0.0021147	-0.0035216	0.0096135	0.024382	0.023525	-0.019595	0.019021	0.046642	0.0030284	-0.024151	0.059654	0.046050	-0.070111	-0.0018922	-0.032204	0.0016925	-0.013921	0.042925	-0.0029653	0.028452	-0.029192	0.020615	0.047408	0.0067727	0.0094822	-0.0072851	0.015506	0.0077897	0.032784	-0.011457	0.013573	-0.019043	0.024076	0.0058883	0.024246	-0.0013292	-0.0073080	-0.018127	-0.0032307	-0.016716	0.0076893	-0.0066446	-0.028202	0.030159	-0.031641	-0.011775	0.0078528	-0.0053241	0.0040297	-0.0034162	0.0068100	0.0080929	0.0095491	0.010107	0.066604	0.015853	-0.020829	0.0093768	0.010762	-0.010005	-0.0020490	-0.0030445	-5.3158E-8
S16.null	0.018157	0.0058276	0.0068167	-0.020165	-0.021124	0.024943	-0.039848	0.027403	0.0088513	-0.024686	0.0050237	-0.011649	-0.0029237	-0.012829	-0.038614	-0.0025345	0.0057173	0.0073033	-0.016924	0.0084519	-0.027323	-0.029301	-0.027508	0.0045818	0.0039914	-0.021253	-0.0034996	-0.0047200	-0.033566	-0.010695	0.0090129	0.0036390	0.00074075	-0.021130	0.015284	0.0092766	0.015692	0.0013387	-0.016418	-0.0088213	0.025097	0.015554	-0.0051483	0.0047191	0.0090662	-0.016106	0.0015844	-0.028164	-0.0024278	-0.035097	-0.025215	0.016809	-0.010955	-0.034837	-0.0073161	0.029182	-0.0089091	-0.011590	0.015963	0.0066910	-0.0024782	-0.014166	0.011719	0.027532	-0.036401	-0.0087966	0.013028	-0.0079281	-0.054567	0.015622	0.010639	0.00087677	-0.00072793	-0.010232	-0.018999	0.028718	-0.012897	-0.032671	-0.030178	-0.0055985	0.000071359	-0.013139	0.045409	0.0079489	0.042561	-0.018495	0.011163	0.0075841	-0.013832	-0.0046615	0.025704	0.013913	0.029083	0.022732	-0.014197	0.0074896	-0.010104	-0.0064426	0.026983	0.032680	-0.025865	0.021339	-0.017973	-0.014998	0.021368	-0.018548	0.012991	0.0078397	-0.0050894	0.023164	0.021856	-0.025666	0.0070636	0.058784	0.017720	0.027959	-0.0079004	0.022412	0.034785	-0.0053868	0.0054537	-0.023059	0.021706	-0.012455	-0.019937	0.0037084	0.0015322	-0.051376	0.027808	0.0030577	0.037425	0.017114	-0.013169	0.012949	0.00081406	-0.036034	0.039935	0.017681	-0.0064822	-0.024364	0.010596	0.0078382	-0.017936	0.025839	-0.026357	0.022100	0.015823	0.0091234	0.0032580	-0.029445	-0.043277	-0.0040249	-0.011716	-0.016278	-0.0073541	0.0016301	0.016785	0.011409	0.031304	-0.000044891	0.034875	0.011112	0.0092295	-0.0089152	-0.0033066	-0.025702	0.00086204	0.0039496	-0.037148	-0.0093492	-0.012072	-0.0025818	-0.013668	0.0050513	0.0013566	-0.012026	0.0013729	0.015879	0.018623	-0.0081042	-0.012406	0.010085	-0.026322	-0.00048280	-0.031440	0.0043163	0.014993	-0.041313	0.018048	0.013460	0.0087114	0.034559	-0.010085	-0.047087	-0.0087941	0.0046435	-0.025255	0.024373	0.013533	-0.029850	-0.0082345	-0.012809	0.016103	0.0078007	0.025953	-0.024306	0.018229	-0.011260	-0.034148	0.016972	0.038369	0.0094933	-0.0070375	-0.015405	0.036225	0.025192	0.013356	0.015386	0.013084	-0.028707	0.017586	-0.034788	-0.0080237	0.026293	0.018882	-0.0072551	-0.023906	-0.012240	-0.0023983	-0.0079307	0.028698	0.0023643	0.00029966	-0.015087	0.0032458	0.012509	-0.0076622	-0.027287	0.026093	-0.0015842	0.025112	0.013992	0.0033349	0.0056016	-0.00071316	0.012169	-0.012582	-0.012651	-0.029366	0.010384	0.014071	-0.013307	-0.047875	-0.0079811	-0.0050529	-0.012587	0.010333	-0.026402	-0.014979	-0.022612	0.0063193	-0.014019	0.0076185	-0.0022554	0.0050985	0.0049834	0.0075578	0.011491	-0.019637	-0.0089603	-0.051382	-0.010883	-0.13008	-0.0045334	0.027610	-0.000048624	-0.011031
S17.null	-0.042942	0.0091021	0.036875	-0.032282	0.024333	-0.0029243	0.0046858	-0.0072990	0.014925	0.020565	0.016697	-0.0075950	0.0048302	0.023723	-0.016303	0.0033815	0.014171	0.0038849	-0.0078018	0.010725	-0.021632	-0.034148	0.015802	0.012187	0.00056758	0.016753	0.00012381	0.021132	0.044627	-0.0041798	0.0016256	-0.00063326	-0.017041	0.0098178	0.0059654	-0.0058020	0.019449	0.00060161	0.010504	0.0098254	-0.012236	0.013413	0.024201	-0.013544	-0.0031398	0.020149	-0.023878	0.0012957	0.011843	0.0072122	0.0026984	0.013412	-0.014245	0.021311	-0.0018456	0.0068209	0.0094504	0.012144	0.014620	-0.015926	-0.013366	-0.022568	0.0011975	0.0040691	0.012584	-0.0051950	-0.023158	-0.0044403	-0.0013219	0.00083869	-0.020880	0.0093361	0.00050887	0.0085720	0.0079562	0.011579	0.017332	-0.011639	0.0063638	0.033141	-0.0034540	-0.0020354	-0.023226	0.012997	0.019561	-0.0083720	-0.032515	0.019376	0.011704	0.0065818	0.017142	0.0035282	0.030200	-0.012818	-0.0075543	-0.0047763	0.028216	-0.0071775	0.0084924	-0.020622	-0.00064574	0.015259	-0.0089008	0.0062337	0.018238	-0.0011139	-0.0061007	-0.0028356	0.010705	-0.0018159	-0.0064356	0.016981	0.0041072	-0.011939	0.0030837	0.0068277	-0.019434	0.00020900	0.0062019	0.0097063	-0.0076262	-0.0093568	-0.027561	-0.000041906	-0.0059707	-0.0063608	0.021547	-0.0022694	-0.0070733	-0.0052878	0.000066069	0.019484	0.0091371	0.0026365	-0.019664	-0.00089488	-0.019071	0.0013327	0.0033158	-0.019566	0.023718	0.032327	0.023088	0.011592	-0.020599	-0.022501	0.027696	0.0099815	-0.014068	0.0079332	0.0070748	0.00076288	-0.0028260	-0.0067666	0.032415	-0.025140	-0.024401	0.030337	0.012897	-0.0019305	0.010695	0.036522	0.0046741	0.0015050	0.013858	-0.029128	-0.039622	0.0024620	-0.031201	0.026291	-0.018687	-0.0020833	0.0093793	0.013507	-0.013619	0.0020846	-0.013227	0.013099	-0.015016	0.031232	-0.017520	0.0066607	0.044198	0.033063	0.017566	-0.037912	0.012263	0.041349	0.0021968	-0.034998	0.043017	0.012214	0.0023530	-0.011446	-0.0069402	0.0068275	-0.0092605	-0.0045948	0.000044672	0.0077731	0.023824	0.011283	0.056944	-0.0011665	0.0013500	0.0085183	-0.010150	0.00073329	-0.012629	0.0044192	0.0084773	0.020068	-0.0030372	0.0015120	0.019304	-0.039942	-0.010031	0.011445	0.0069774	-0.0041132	0.029467	0.010013	0.0039539	0.0065038	0.0020474	0.023176	-0.024285	-0.0066521	-0.0048904	0.022939	0.015460	-0.0074948	0.012117	-0.022125	0.026076	-0.0068179	0.0046931	-0.017857	0.042202	-0.026322	0.020930	0.0048932	0.0034505	0.0045236	0.0042075	0.015172	-0.0098873	0.013741	-0.0055091	0.029498	-0.0034342	0.044368	0.0041606	0.0026312	0.053766	-0.048828	-0.013096	-0.0024845	0.010692	-0.00017017	-0.0073583	-0.0059607	-0.0087631	0.022671	0.021587	0.0081819	0.0079706	-0.017133	-0.0081297	0.012811	0.00033428	0.0072436	-0.0013971	-0.0037762	-0.0023169	-0.0058282	0.11675
S18.null	-0.020333	0.0054362	-0.015854	-0.015197	0.022983	-0.018088	-0.010772	-0.011009	-0.013788	-0.0095881	-0.0063360	-0.037672	-0.0084371	0.017231	0.00051905	-0.0010981	0.025242	-0.00025834	0.0016289	-0.029794	-0.0080924	0.014499	0.022635	0.0065939	0.020536	-0.014779	0.021875	0.027254	0.0067366	-0.033875	-0.014367	0.0085117	0.0031610	-0.0095082	-0.021978	-0.0049355	-0.021813	-0.00041650	0.021439	-0.0058236	0.0024084	-0.040250	-0.00032942	-0.0032444	0.0037213	-0.036351	0.014736	-0.030947	-0.024124	0.014930	-0.0018142	0.0093698	0.039535	-0.0058865	0.0084419	-0.011833	-0.027879	0.035274	0.019513	-0.0031276	0.033617	0.012877	-0.037116	-0.0029651	-0.011201	0.017631	0.016801	-0.015999	0.022863	-0.010698	0.010934	0.0028049	0.011324	-0.017885	0.014442	0.0041282	0.0080148	0.013157	-0.026856	-0.0098859	0.0094067	-0.0098846	-0.0078369	-0.0050882	0.024018	0.0014030	0.015075	0.0029076	0.015314	-0.017307	-0.025694	0.0022387	-0.010677	0.014154	-0.022712	-0.0052326	-0.028650	0.037380	0.012382	0.052510	0.0041838	-0.018605	-0.019062	-0.028413	0.0085901	0.029548	0.0060874	-0.058556	-0.0019728	-0.040780	-0.0071366	0.026186	-0.0058928	-0.017586	-0.0040856	0.012841	-0.022850	-0.0060300	0.018588	-0.043342	-0.018588	-0.012491	0.032548	-0.0072872	-0.048824	-0.00061879	0.0013284	0.017667	-0.0011549	0.010601	-0.024851	0.017811	0.0094885	-0.013353	-0.0052690	-0.012990	-0.0024706	-0.0076137	-0.0033954	-0.0094985	0.031534	0.023588	0.032513	0.0066265	-0.0036586	-0.029555	0.066053	-0.021924	0.011057	-0.043803	0.033843	-0.0015283	0.020796	-0.017869	0.033006	0.021295	-0.010610	-0.0071888	0.035384	-0.0034439	-0.0072200	-0.013012	-0.036748	-0.019611	-0.019402	0.036508	-0.020669	0.014004	-0.022865	-0.040228	0.021292	0.00083218	-0.025681	0.016562	-0.0022760	0.0023477	-0.032476	0.0017765	-0.019013	0.018838	0.030059	-0.028919	0.019134	0.028739	-0.049048	-0.0011063	-0.0040085	-0.0094449	-0.0013764	-0.021464	-0.0029633	0.025083	0.038081	-0.025890	0.0077427	0.012594	0.019170	-0.011041	-0.0063388	0.017194	-0.029605	-0.017155	0.018750	-0.050404	-0.023740	-0.016651	0.029618	0.015559	-0.036057	-0.00022683	0.047757	0.010779	0.0071412	-0.020195	0.00074872	-0.021155	0.0043703	-0.024283	-0.030784	0.021390	-0.027992	-0.034577	-0.0071182	-0.026929	-0.0043819	0.016275	-0.021244	0.0067599	-0.0076638	-0.028805	0.044652	-0.020413	-0.022295	-0.0079054	0.010585	0.0063649	0.0031481	-0.014651	-0.048161	0.0019741	0.011194	0.0097896	0.045652	-0.013722	0.013837	-0.0056570	-0.014657	-0.0032233	0.0071894	-0.010599	0.026032	0.0082117	-0.045003	-0.060736	-0.013046	-0.016825	0.0095100	0.030050	0.018071	-0.044943	0.0091899	0.0036320	0.0027383	-0.033829	0.0049503	0.030527	0.024272	0.036012	0.015279	-0.031643	0.0086922	0.020313	0.0036898	-0.0093588	0.0034136	0.0045549	0.060808
S19.null	-0.030305	-0.0099412	0.033456	-0.0051403	0.017035	0.0016652	0.015504	-0.039153	-0.024670	0.0099138	0.036298	-0.020917	0.028218	0.014783	-0.0065758	0.010915	0.035634	-0.0080377	-0.017461	-0.012193	0.0095966	-0.0079397	0.048742	0.015362	-0.0023449	0.0044082	0.0041155	0.022099	0.025302	-0.015887	-0.023070	-0.0085682	0.0071799	0.0039953	0.0064598	0.011868	0.0058010	-0.019289	0.030990	-0.011292	-0.0028674	-0.023370	-0.0072409	0.0077594	0.029661	-0.012387	-0.020002	-0.016548	0.0046294	-0.041798	0.029734	-0.035662	0.020119	-0.00065920	0.010161	-0.010632	-0.0050170	0.029382	0.0020005	0.0020179	0.034550	0.020906	0.0010824	-0.0055172	0.010974	0.0045508	-0.022292	0.0053120	0.029026	-0.023691	-0.0055604	0.018653	0.00021308	0.0035574	0.0069360	0.014087	-0.0063697	-0.011451	-0.020696	-0.016297	-0.0098994	-0.0011471	-0.015097	-0.010833	-0.0045918	0.016882	-0.018388	-0.012433	0.0020339	-0.015534	-0.0017661	-0.0011424	-0.0029992	0.0052495	-0.0067101	-0.0015750	0.00016441	0.022409	0.029381	0.0068882	-0.0092360	0.0091852	0.000073119	0.0029554	0.011815	0.029489	0.0065741	-0.011690	0.021907	-0.026139	0.016966	0.014811	-0.014323	0.017742	0.0035293	0.0032390	-0.0014190	-0.047791	-0.0010126	0.026834	-0.018230	-0.012279	-0.0034938	0.026761	0.0044803	-0.019286	0.017698	-0.0097775	-0.013503	0.013091	-0.0051336	0.0069086	0.0012526	0.0013835	0.010450	0.022301	0.0020660	0.0017212	-0.046376	-0.0043229	0.014933	0.034599	0.017186	0.028071	0.0060240	-0.014131	0.022177	0.023230	-0.012645	0.031693	-0.044870	0.020034	-0.041100	-0.024413	0.0015541	-0.016734	-0.0072172	0.00036511	-0.024960	0.012160	-0.010796	-0.0095664	-0.0088143	-0.020414	-0.024608	-0.012712	0.031506	-0.022732	0.0052927	-0.026454	0.017155	-0.011478	0.011587	0.021493	0.0064726	0.0019833	-0.0098508	0.011429	0.021344	-0.030458	0.0024975	-0.027947	0.0062020	0.020731	0.027912	0.022140	-0.0062018	0.0046976	0.0047411	0.019921	-0.015605	0.0054270	0.0059352	0.027081	-0.046080	-0.0030487	-0.0011948	-0.022381	0.025334	-0.0022178	-0.025781	0.020638	0.027083	-0.045454	-0.020036	0.010194	-0.016803	0.0025454	0.0075169	-0.024400	-0.0024138	0.017419	-0.031672	0.013269	0.0074146	-0.012195	-0.021053	-0.018132	-0.019009	0.0026616	-0.0075103	0.0091235	0.017762	-0.014028	-0.00034266	0.011775	0.0083295	0.024413	-0.015882	0.0081451	-0.0020749	0.0020454	0.0059494	-0.0089458	-0.00061160	-0.010891	0.011513	0.017930	-0.0057259	0.017563	-0.022659	0.0010011	0.0046477	0.0035309	-0.034445	0.011477	-0.018872	0.010819	0.0019165	-0.016295	-0.0038903	0.020012	-0.012674	-0.037081	-0.0069280	0.0028815	0.012996	0.033270	0.0024944	-0.030475	0.012386	0.017536	0.0036341	-0.018474	-0.013086	0.021881	0.0088455	0.011341	0.017259	-0.040881	-0.0026503	0.026391	-0.0029836	-0.020242	0.0051569	0.0027071	-0.099450
S20.null	-0.026547	-0.011311	0.031563	-0.0062345	0.010707	0.0055218	0.0091535	-0.039955	-0.018539	0.0072405	0.029982	-0.025642	0.030786	0.0015757	0.0058515	-0.00076979	0.031484	-0.0023275	0.0033140	-0.015512	0.00033588	-0.011694	0.040280	0.013889	0.0043383	0.032865	0.016695	0.024132	0.0035907	-0.017787	-0.014296	-0.031122	-0.00014400	-0.00060523	0.0048895	0.025789	0.012441	-0.0048715	0.036981	-0.0056409	0.0035552	-0.032343	-0.0033403	0.012076	0.025206	-0.025483	-0.016067	-0.016675	0.0020064	-0.033017	0.021380	-0.030690	0.016890	0.020189	0.0088545	-0.0043311	-0.018728	0.033684	0.011706	0.0060617	0.014451	0.034307	-0.00086506	-0.011022	0.034554	-0.0030671	-0.036448	-0.012688	0.014976	-0.0067266	0.017709	0.012030	0.00058963	0.0047228	0.0063180	0.013727	-0.0031335	-0.0062915	-0.015183	-0.034367	0.0084266	-0.0065064	-0.012732	-0.024401	-0.0087092	0.0080730	-0.022186	0.00021444	0.010562	-0.017433	-0.013393	-0.0073318	-0.000054480	0.0026133	-0.0042115	-0.013753	0.017968	0.018829	0.011862	0.013234	0.0034604	0.013177	0.0032971	-0.023446	0.0071184	0.025678	0.015982	-0.042928	0.023491	-0.036614	0.0014544	-0.0043759	-0.017164	0.025782	0.000068549	-0.0044722	0.0034554	-0.062617	0.0032127	0.022754	-0.038328	0.015813	-0.011773	0.013641	0.0038432	-0.013891	0.022035	0.00093805	0.014808	0.028330	-0.016028	0.033755	0.012421	0.031612	-0.020508	0.021033	-0.027165	-0.0024646	-0.043114	0.0085601	0.0072590	0.028027	-0.0051332	0.021965	-0.014217	0.0050417	0.019092	0.017335	0.012610	0.0070206	-0.034710	-0.0065240	-0.023534	-0.019683	0.016195	-0.016708	-0.0028457	0.0082481	-0.0024960	-0.0014562	-0.0037844	-0.012259	-0.00033739	0.0026720	-0.019309	0.0046730	0.024401	-0.020019	-0.0019935	-0.013088	0.014180	-0.029529	0.023014	0.0085287	-0.0011949	0.0034879	0.00012167	0.025583	-0.0093774	-0.040968	-0.000021009	-0.029401	0.0068209	0.021122	0.0054477	0.046516	0.025965	-0.015494	-0.0098731	-0.0081623	-0.000026424	0.0077331	0.019962	-0.0014693	-0.016672	0.035339	0.011487	-0.031859	0.012156	-0.0057744	-0.015136	0.023583	0.039923	-0.035865	0.00070519	0.017420	-0.039064	-0.0029880	0.030722	-0.0028136	0.017626	0.012979	0.0051024	-0.0038115	0.0097106	-0.0095889	0.00086912	0.010185	-0.032313	-0.0056298	-0.010713	-0.010314	0.018542	-0.038055	-0.0025299	0.024698	0.010368	0.030391	-0.017086	0.0071751	0.00090589	0.0025748	0.0074564	-0.017823	-0.0033618	-0.014258	0.0054391	0.025481	0.0054485	0.016586	-0.011671	0.0065568	0.010199	0.0041728	-0.035761	0.015625	-0.027770	0.012378	-0.0053280	-0.0082046	-0.0048937	0.016172	-0.038153	-0.040590	0.0030438	-0.0027160	0.0091870	0.040649	0.0074406	-0.037783	0.025401	0.0093750	0.0010741	-0.012232	-0.00063896	0.014080	0.017258	0.0073058	0.022522	-0.041169	0.00014716	0.011062	-0.0041156	-0.027658	-0.0033536	-0.00056046	0.053642
S21.null	-0.034036	-0.0071045	0.037898	-0.0057875	0.024522	0.0024831	0.014641	-0.034852	-0.023182	0.0052386	0.016727	-0.018949	0.023746	0.015713	-0.019060	0.0059078	0.024282	-0.021563	-0.0018186	-0.020609	0.023634	-0.010032	0.033349	0.016981	-0.0048282	-0.012662	0.018323	0.014975	-0.0093018	-0.024701	-0.016644	-0.010053	-0.0030868	0.0052055	0.0034859	0.020079	0.0043706	-0.0053378	0.027945	-0.0060476	-0.0015419	-0.029658	-0.011017	0.0016233	0.030352	-0.024026	-0.0077004	-0.027202	0.014393	-0.020319	0.015552	-0.021754	0.019352	-0.019489	0.010832	-0.031819	-0.0013361	0.029400	0.0048601	-0.016067	0.014849	0.014927	-0.0094941	-0.0030596	0.010428	0.0070517	-0.022140	-0.00037945	0.012487	-0.014853	-0.0052737	0.010247	0.016082	-0.0017859	0.0011607	0.027455	-0.0052740	-0.0033396	-0.029305	-0.0083191	-0.00030809	-0.016449	-0.0081921	-0.018726	-0.021201	0.023479	-0.023026	-0.018456	0.010822	-0.021724	0.022036	0.0024295	-0.015188	0.021100	0.0015459	0.0027665	0.0071477	0.019020	0.017215	0.022434	-0.0029464	0.0051829	-0.0019119	-0.018669	0.019933	0.015661	0.0014179	-0.018605	-0.012293	-0.0076882	0.016072	-0.015613	-0.0057998	0.013806	0.037271	-0.0038113	-0.0058517	-0.032936	0.011447	0.024032	-0.012101	0.0082605	-0.0083057	0.022037	0.017507	-0.0088769	-0.026748	0.0083921	-0.0068247	0.031700	0.0054160	0.028605	0.0031529	-0.0016015	0.041184	0.029674	-0.0016421	0.0086201	-0.035962	-0.015971	0.015413	0.014234	0.026664	0.044083	0.015165	-0.012276	0.033885	-0.0025585	0.014695	0.016666	-0.035680	0.020312	-0.036494	-0.023242	0.010512	-0.033637	0.0034260	-0.0043979	-0.013669	0.030852	0.026065	0.012513	0.0076081	-0.020901	-0.019665	-0.023353	0.021637	-0.034786	-0.0059888	-0.042440	0.014087	0.0068644	-0.0098223	0.015769	0.0042626	0.0079920	-0.021750	0.017109	-0.017323	-0.012323	0.012298	-0.011960	0.018350	0.012712	0.031207	0.024600	-0.012481	0.0021833	-0.0056906	0.021475	0.0013116	-0.0082506	0.0062325	-0.0060005	-0.029225	0.020041	0.028970	-0.020191	0.012587	0.031523	-0.018552	-0.0030420	0.0094103	-0.034356	-0.021995	0.0073160	-0.0069815	0.0038945	0.0099164	0.00026494	-0.0028978	0.0073236	-0.015192	-0.012452	-0.0088962	-0.019167	-0.0015428	-0.022153	-0.036636	0.025322	-0.0053329	-0.010030	0.0087677	-0.020060	0.0088125	0.00021929	-0.0066765	0.023230	-0.0053663	-0.0049801	0.0042546	0.0019480	0.016864	-0.0083726	-0.012089	0.0042420	0.035044	0.0072092	0.019669	-0.0038708	-0.025884	0.0045386	-0.0079814	0.0061826	-0.021661	0.014678	-0.012805	0.012225	-0.0077910	-0.019417	0.016398	0.00081058	-0.0016592	0.0033243	-0.0041169	-0.0071070	0.0086431	0.0037950	-0.0091911	0.022149	-0.0059884	-0.0076325	-0.0052359	0.016722	-0.0059817	-0.0035015	0.0033056	-0.017552	-0.00041957	0.011013	0.00093941	0.0095342	0.010058	-0.0076949	-0.0033976	0.0098711	-0.013959
S22.null	0.017297	-0.0096779	0.0086847	-0.0023459	-0.029234	-0.014110	-0.035698	-0.028563	0.015639	-0.019593	-0.018989	-0.025996	0.034225	-0.0018861	-0.028131	-0.017376	-0.014098	-0.013361	-0.015418	0.0079421	0.019450	0.0085432	0.022961	0.010225	-0.00044183	0.0093857	0.018776	0.030762	-0.013578	0.0075857	-0.0095505	-0.014576	-0.0022697	0.011941	0.0070210	-0.060106	-0.0087085	-0.0016004	-0.016264	0.0042196	0.0055054	0.024378	-0.0027536	-0.027358	0.013689	-0.0066432	0.029237	-0.052053	0.014516	-0.021020	-0.011700	0.023604	-0.012045	-0.034653	0.014923	0.012135	0.060208	-0.0020762	-0.028910	-0.025204	0.013776	0.0051433	-0.020925	-0.018070	-0.0077166	-0.00062560	-0.0036482	0.037094	0.023917	0.013727	0.0010393	0.0020187	-0.0086250	0.016738	-0.010202	0.013037	-0.0058438	0.014632	-0.015145	0.0011916	-0.0024839	-0.0024553	-0.011153	-0.033081	-0.0026074	0.0078064	-0.014889	0.022159	-0.010346	-0.014211	-0.0059757	-0.016196	0.0069548	0.0092674	-0.0063787	0.013695	-0.00069894	-0.022385	0.0088130	-0.015857	-0.013670	-0.022814	-0.023902	-0.041008	0.0024073	0.011990	0.039921	0.027360	-0.049226	0.016208	0.020957	0.0098288	0.040959	-0.020790	0.012166	0.031483	0.0068140	0.0027631	0.022422	0.0089482	0.033211	0.011116	0.012655	-0.033557	0.032992	-0.018849	0.023691	0.0089196	-0.013461	0.021195	0.039031	0.012191	0.0070710	-0.00046964	-0.017363	0.040761	-0.014963	-0.048966	-0.010024	-0.013832	0.0095961	-0.013554	0.033137	0.018750	-0.0029580	0.0029990	0.024801	0.013357	-0.0036106	-0.018286	-0.0067637	0.0031541	-0.0042515	0.012969	0.0014488	0.018339	0.0031617	-0.0088701	-0.018713	0.0047476	0.000064179	-0.0019609	0.00016799	0.014921	0.0031332	-0.026856	0.0018961	-0.028149	-0.0087287	0.020470	-0.0086073	0.020703	0.0012129	0.034569	0.0068532	0.0056466	0.020925	-0.040314	-0.013942	-0.0077395	0.0033423	0.011519	0.028838	-0.014847	0.017975	0.015725	-0.018601	-0.0079002	0.015340	-0.0052821	0.036728	0.0056063	0.012897	0.011445	0.052577	-0.020477	0.016582	0.020063	-0.021624	0.023940	0.013001	-0.0045990	-0.016431	-0.020271	0.046046	0.026837	-0.015551	0.010468	0.011440	-0.025455	-0.019924	0.0089745	-0.0030461	0.016067	-0.0058493	-0.031191	-0.00095749	-0.012888	-0.010171	-0.0082893	0.029070	0.023770	-0.029889	0.0024899	-0.010682	0.00057359	0.017490	-0.0035650	-0.036669	-0.0084128	0.0065690	0.0068496	-0.022173	0.014495	-0.0068660	0.0068118	0.0029425	-0.031444	-0.0047903	-0.0092284	0.0082853	-0.030088	0.020538	0.0063006	0.0030382	0.015578	-0.0045832	-0.035834	0.0098263	0.013003	0.034088	-0.0086719	0.0018884	-0.0024955	-0.00064446	-0.0015525	0.0029157	-0.0069325	0.032021	0.025981	0.015875	-0.032892	0.020860	-0.010164	0.048836	0.028891	-0.017201	0.0033630	0.0042390	0.0017136	0.024878	0.0083831	0.0096014	-0.0022573	0.0016348	0.0047319	-0.050395
S23.null	0.0047034	-0.016744	-0.027906	0.022861	0.021240	0.038536	0.036751	0.0063603	-0.016160	0.023591	-0.0055842	-0.0060749	-0.028742	0.0074424	-0.018288	0.018605	-0.024013	-0.029417	-0.043404	0.0018499	-0.016421	-0.0076102	-0.025471	-0.016008	0.0030551	-0.0011058	-0.0020820	-0.023358	-0.027281	-0.023829	0.011914	-0.0018639	-0.010746	0.042498	0.010305	0.027926	-0.0019053	0.0064216	0.041470	-0.0090933	-0.011841	-0.00013697	0.014624	0.019018	0.028780	0.020366	-0.00036806	-0.0016342	-0.023296	0.0073803	-0.031425	0.0030086	0.016904	-0.0064960	-0.0074024	0.0052918	-0.0032875	0.023774	0.025578	0.0019772	-0.018608	0.014722	0.00098897	0.036722	-0.016159	0.0077112	-0.019120	-0.013908	-0.012621	0.021665	0.0053702	0.025122	-0.0064692	0.024232	-0.0012487	-0.034064	-0.00095557	0.017360	0.018720	-0.019045	0.027366	0.0071949	-0.010070	0.030930	-0.0077530	-0.065507	0.036571	-0.022359	0.020371	0.0094848	0.012440	0.028636	0.016260	0.011340	-0.019538	-0.027587	-0.028260	0.0050661	-0.0022173	0.021399	-0.019567	0.052613	0.0080926	0.020096	0.0010555	-0.0032779	-0.025125	-0.012099	0.0021427	-0.0080904	-0.0058635	0.0025733	-0.013708	0.017949	0.010223	-0.0070766	0.013258	-0.012634	-0.019138	-0.014844	-0.013963	0.0060815	-0.012551	-0.0048062	-0.014353	-0.0099230	-0.018398	-0.019250	0.0098692	0.012779	0.022088	0.020827	0.026593	0.029852	-0.0043860	-0.012483	0.019449	-0.0076013	-0.035894	-0.017685	-0.029967	0.012254	-0.020143	-0.00061892	0.012609	-0.014312	0.033061	-0.013407	0.019977	0.0033688	0.00014068	-0.0090532	-0.030986	-0.0031880	0.018206	-0.017528	-0.024280	-0.016214	-0.036685	0.0082570	0.030380	0.0016364	0.011722	0.014205	-0.020126	-0.013350	-0.0047457	-0.016810	-0.020716	0.011304	-0.0094145	-0.019103	0.0052494	0.031954	-0.0031631	0.0096876	-0.019780	-0.010397	-0.023525	0.022070	0.0064433	0.012401	-0.018157	-0.0030710	0.011027	0.015304	0.019102	0.038074	-0.0057361	0.025817	0.022700	0.011259	-0.027197	0.010645	0.0085345	0.0080173	0.017111	-0.0032958	-0.0015714	-0.011041	-0.039093	0.011600	-0.014759	-0.0056408	-0.011499	-0.021055	0.029341	0.019220	0.0096730	0.013562	0.0027933	0.0018597	0.0037101	-0.017960	-0.028801	0.032500	0.014070	0.0035708	0.034853	-0.024424	0.015742	-0.018160	-0.017778	-0.014850	0.0015534	0.013648	0.0030609	0.018827	0.046909	-0.014621	0.00023345	-0.019968	-0.0010493	0.014608	-0.016514	0.0048232	-0.0086316	0.014793	0.0058337	-0.010843	0.0057612	0.016577	0.0039570	-0.025238	-0.026680	0.023812	-0.0014395	0.018458	0.0046307	0.0071133	0.0012455	-0.0065819	0.0071656	0.010807	0.016180	0.0062041	-0.024201	0.016792	-0.029465	-0.026516	-0.0082054	0.036741	-0.025184	0.034615	-0.048117	-0.024968	0.023807	0.014038	0.0013079	0.010937	-0.0086998	0.0037473	0.0051295	0.00024603	-0.0039662	-0.018288	-0.016991
S24.null	-0.0055712	0.013629	0.030537	-0.022430	-0.025938	-0.033207	-0.039531	-0.0069380	0.018249	-0.022234	0.0023211	0.013108	0.030987	-0.0022029	0.018131	-0.015072	0.026132	0.020394	0.029815	-0.0056673	0.017257	0.015287	0.036791	0.010369	0.010021	0.020540	-0.00026100	0.023448	0.016209	0.042406	-0.012172	0.0077808	0.018094	-0.038313	-0.015691	-0.022792	-0.0011071	0.0035792	-0.046171	0.010114	0.015460	0.0042559	-0.012997	-0.022840	-0.0062617	-0.0062233	0.0049835	-0.00051193	0.012461	-0.018595	0.020319	0.018723	0.00021497	-0.0058085	-0.0052255	0.0026456	-0.00026763	-0.013052	-0.0026164	-0.015273	0.044305	-0.018156	0.0019390	-0.042605	0.012905	0.0052379	0.023113	-0.0010712	-0.0037930	-0.018911	-0.0095908	-0.033998	0.0081022	-0.013388	0.0082608	-0.0077996	-0.000089515	0.00094460	-0.010366	-0.0066734	-0.031521	-0.028875	0.026879	-0.037805	0.029062	0.056012	-0.039738	0.035983	-0.023211	0.0040112	-0.0081153	-0.021401	-0.0088253	-0.019464	0.015156	0.015670	0.031851	0.0061597	-0.0010760	-0.025362	0.0051652	-0.048943	-0.015272	-0.0057092	0.017285	-0.013534	0.029076	-0.0021963	-0.017437	0.0018779	-0.011199	0.022920	0.0063645	-0.00084334	-0.0010354	0.016379	0.0027147	0.0060393	-0.00072621	0.0041489	-0.00098026	-0.017375	0.0050433	-0.0048473	0.028360	0.012588	0.0086258	0.032990	-0.038780	-0.0066233	-0.0068893	-0.0042320	-0.0084858	-0.018228	-0.00045623	0.016454	-0.046057	-0.0036686	0.021527	-0.0061409	0.020264	-0.015200	-0.0017799	0.0060359	0.0016832	0.0053030	-0.014513	0.030731	-0.0051231	0.031970	-0.0050367	0.021799	0.0031940	0.0081627	-0.015593	-0.0077916	0.040394	0.0050246	0.035893	0.016894	0.0086728	0.026454	-0.0073104	0.013480	0.0017772	0.027856	0.0038837	0.013173	0.0036959	-0.010740	0.0060494	0.021878	-0.0086673	-0.038827	-0.0086848	-0.010938	0.016104	0.017313	0.036343	-0.0059810	0.010346	-0.0067150	0.0085965	0.0017363	0.0092439	-0.0045706	-0.026744	-0.030936	0.011428	-0.030970	-0.014165	-0.012478	0.011743	-0.017060	0.027277	-0.0061837	-0.016750	0.023457	-0.013495	0.0015090	0.018890	-0.0056683	0.020611	-0.011271	0.0064285	0.016496	-0.0040434	-0.00026831	0.017714	-0.019598	-0.0024454	-0.013712	-0.0071287	0.0087046	0.017177	-0.034107	-0.023844	0.017007	-0.025499	0.023664	-0.0045685	0.0038963	0.0029468	0.027196	-0.011919	-0.0096901	-0.0016041	-0.012288	-0.034760	0.0033183	-0.0032334	0.012268	-0.0074417	-0.011695	0.0074677	-0.012608	0.011745	-0.011615	0.010202	-0.017591	0.017213	-0.0064263	0.0039691	0.027604	0.018879	-0.0052175	-0.010914	-0.014158	0.016032	-0.0071492	0.020338	-0.0089089	-0.021817	-0.0031433	-0.0021832	0.00083747	0.012677	-0.0062275	0.034261	0.020537	0.0039367	-0.032490	0.028643	-0.027094	0.057991	0.031110	-0.022482	-0.0096524	-0.0059219	-0.0054720	0.014467	-0.00048129	-0.0059856	0.0040272	-0.0022008	0.013961	0.0035381
S25.null	0.024353	0.032705	-0.0035766	0.0032834	-0.0069694	0.026590	-0.0013688	-0.0097999	-0.0071072	-0.0043865	0.0025677	-0.0020493	0.013596	-0.012675	-0.022355	0.013899	0.0095842	-0.0098838	-0.0061787	-0.013913	0.017432	-0.0091291	-0.0073712	-0.0039363	0.016441	0.0036818	-0.0032068	-0.010591	-0.017918	0.028361	-0.024328	0.0075971	0.023730	-0.022038	-0.0080175	-0.013633	0.0017157	0.012318	0.015148	-0.00061698	-0.046984	0.0050579	-0.0034417	-0.013895	-0.0026720	-0.014299	-0.035188	-0.017093	0.0015652	-0.0063513	0.0040590	-0.021556	0.025995	-0.0052426	0.0030431	0.015880	-0.0019252	-0.0018839	-0.034425	-0.024786	-0.015160	0.016458	-0.012566	0.013198	0.014338	0.021848	0.017684	0.0052376	0.012519	-0.012628	-0.016966	-0.0035373	-0.014600	-0.00064157	0.010355	-0.016259	0.024866	-0.036199	0.034742	0.032369	0.031343	-0.013105	0.015225	-0.055660	0.014022	0.013150	-0.044618	-0.0041609	0.012269	0.042413	0.052941	0.020931	0.025511	0.034066	0.020199	0.017497	0.0032795	-0.020893	-0.010166	0.019403	0.031847	0.035830	0.039054	-0.0043563	0.016761	0.011679	-0.023184	0.015858	0.012752	0.0061518	-0.014721	0.013711	-0.013572	-0.0020717	0.0086385	-0.015117	0.0012560	-0.026496	0.0083140	0.032863	-0.040049	0.00038095	0.0061807	-0.024724	0.0055337	0.0069890	0.064911	0.016579	0.0018458	-0.0017976	-0.015013	-0.031444	-0.022295	-0.0044082	-0.043128	-0.020697	0.025289	-0.0045899	0.023028	-0.0050524	0.015909	-0.017264	0.0012688	0.027741	-0.022209	0.011013	-0.0030772	-0.013602	-0.027978	-0.0050556	-0.041043	-0.021007	0.035301	0.010912	-0.015419	0.0083652	0.024404	-0.011985	0.00051259	0.025576	-0.026858	-0.021875	-0.022947	-0.029078	-0.013429	-0.0093816	0.012826	-0.0029223	-0.062657	0.011637	0.053347	-0.013815	-0.0036342	-0.018059	-0.0051661	0.019226	-0.015516	0.0080277	-0.023625	-0.019037	-0.035167	-0.022967	-0.011407	-0.020902	0.0099474	-0.030910	-0.010286	0.0037052	-0.020002	-0.0032899	0.011539	-0.013983	0.0093708	-0.032200	0.0094541	0.010420	0.022139	0.0027350	-0.013407	0.0036503	0.021339	-0.034369	-0.020660	-0.011064	-0.013963	0.00072968	0.023417	0.017810	-0.0094006	0.0037125	-0.0040071	0.033288	0.0030952	0.0069324	0.021310	-0.024324	0.036369	0.0063120	0.00048266	0.0084712	0.0066323	-0.019551	-0.0014949	0.019055	0.0062068	0.032663	-0.013142	-0.0098763	-0.021849	-0.024871	0.058870	-0.039936	-0.0016451	0.0041388	-0.024145	0.017055	0.047312	-0.0068991	0.025180	-0.0068069	-0.0047493	-0.0094010	0.0047971	0.0055937	-0.030472	-0.011792	-0.0073275	-0.0019662	-0.025012	-0.010271	-0.0011840	-0.0063842	-0.019786	-0.0070242	-0.0086987	-0.014370	-0.0026418	-0.013436	0.035673	-0.0050668	-0.0049630	-0.023542	0.0046154	0.0014790	0.0039307	-0.0057531	-0.011297	0.0033117	0.00047999	0.0072482	-0.0048007	-0.00073997	0.012680	-0.022092	0.0016646	0.010030	-0.0036264
S26.null	-0.024747	-0.0077036	0.014777	-0.0062438	0.026557	-0.0025526	-0.011542	-0.034925	-0.027090	0.0011669	-0.012405	-0.0036143	0.0071178	0.0012072	0.00099632	0.0053721	0.024623	0.0054248	-0.0053389	-0.028860	-0.017325	-0.0068041	0.023829	-0.015071	-0.0074562	0.0032082	-0.0081812	-0.016197	-0.021171	-0.010501	-0.020623	0.00035535	-0.018111	0.022606	-0.015935	0.032686	-0.060963	0.011200	0.012919	-0.0032238	-0.017243	-0.041941	-0.030231	0.014018	-0.0025755	0.015925	-0.0064726	-0.014355	-0.018361	-0.033733	-0.013882	0.0069989	0.038077	0.030294	-0.012862	-0.024344	0.0056294	0.0070142	0.0040677	-0.049590	0.0030295	-0.019870	0.0058073	0.0059818	-0.020635	0.017775	0.013006	-0.000061662	0.023911	0.0063905	-0.00096483	-0.000095502	0.037561	0.0069241	0.0000033337	0.011807	0.014928	-0.015258	-0.031613	0.00078140	-0.010759	0.011347	-0.0038499	-0.0062217	0.012503	-0.014561	0.0072543	0.0087115	0.033282	-0.016381	0.0032011	0.018030	0.035358	0.0034568	-0.033457	0.019520	-0.0021136	-0.011554	0.0041147	0.011100	-0.0099763	0.022941	-0.035686	0.058323	0.023571	0.0076170	-0.031564	0.0014989	0.010878	0.0038165	0.0015610	0.017517	0.0069291	0.0036815	0.024819	-0.019297	-0.039639	-0.028268	-0.018184	0.027812	0.018577	-0.010205	-0.012811	-0.035756	-0.034100	-0.0042071	0.023658	-0.017983	0.010925	-0.025471	-0.015570	-0.034367	0.0085534	-0.0063033	-0.032051	0.029689	-0.0028141	-0.0047163	-0.032716	-0.016680	-0.026593	0.0069675	0.010110	0.0057453	0.021945	-0.020100	-0.00019445	-0.029512	0.00089577	-0.010452	0.0059003	0.016732	-0.016512	-0.029674	0.00060352	-0.030665	0.016922	-0.0042183	-0.028896	-0.015057	0.029480	0.017275	-0.016932	-0.026148	-0.033495	-0.014968	0.019391	0.0090116	0.010359	-0.031203	-0.010306	-0.016764	-0.0070314	-0.012367	-0.011893	0.033749	0.047464	-0.0093660	0.013775	-0.010557	0.017771	-0.025993	0.028531	-0.014301	-0.0041113	0.00016726	-0.0056434	-0.0017193	0.045279	-0.000093593	0.011493	-0.0042816	0.000071056	0.0040883	-0.0084142	0.026064	0.020587	0.024848	0.00049217	0.00096004	0.046628	-0.045818	0.027562	0.0086036	-0.025840	0.011043	-0.039091	0.028838	0.025556	-0.021979	-0.018582	0.023676	-0.038447	-0.014651	0.010143	-0.011920	-0.00033330	-0.029410	0.0073301	0.044627	-0.0079650	-0.0063841	0.030975	-0.0047742	-0.0058104	0.019393	0.0067924	0.027216	-0.012737	0.0066643	-0.0013764	0.014649	0.0075574	-0.0074534	0.0016808	-0.00085393	0.016869	0.019179	-0.019363	-0.010017	-0.018427	0.0080439	-0.0079463	0.0052928	0.039300	-0.013292	-0.015791	-0.00081591	-0.0034155	-0.0095885	0.012958	-0.051265	0.012763	-0.044155	0.0063493	-0.032938	-0.010094	0.0034871	-0.019375	-0.0015763	-0.020409	0.00033911	0.0065318	-0.0042077	0.0030654	-0.014552	0.012307	0.0087531	-0.058612	-0.031747	0.033247	-0.020326	-0.018653	0.0048900	0.0084063	0.0061980	-0.019254
S27.null	0.017030	0.021754	0.0098373	0.037356	0.0045003	0.017231	0.018085	0.019547	0.0021034	0.0087855	0.019129	-0.024289	0.017609	0.0042589	0.0027371	0.0059891	-0.013405	-0.057251	-0.019358	0.019368	0.025132	-0.0052753	0.023618	-0.0084404	0.010680	0.030060	0.031838	-0.018669	-0.0046340	0.014567	-0.0074829	0.0035741	-0.0097827	-0.019933	0.029287	-0.0058105	0.041783	0.0034404	0.026182	-0.011893	-0.013903	-0.019137	-0.011296	-0.016911	-0.0014422	0.0045257	0.026540	0.012340	0.0098905	-0.00015213	-0.015931	-0.00043791	0.010981	-0.024712	0.021026	0.0020831	-0.0088504	0.0059929	-0.0089825	0.017557	0.0064445	-0.010089	-0.027156	-0.011117	0.015324	0.0093870	0.019843	-0.0074725	-0.023152	-0.025762	0.015351	0.0046559	-0.00042222	0.0045512	-0.017580	0.010515	0.0032925	-0.0027175	0.010794	-0.013717	0.0091987	0.0038324	0.018532	0.0068213	-0.025468	-0.0094427	0.0025638	-0.0095572	-0.014789	-0.028594	0.0027176	-0.0085106	0.0067723	-0.0012987	0.019748	-0.0012186	0.012103	-0.0094598	-0.022767	-0.030254	0.010339	0.014332	0.0066798	-0.0090261	0.041130	-0.035473	0.048063	0.027873	0.036670	0.0039716	0.0095569	0.0064876	-0.023361	0.0016984	-0.037346	0.0014139	0.029812	0.015990	-0.017276	-0.019734	-0.017412	0.029440	0.053607	0.054904	-0.030124	0.023649	-0.019102	-0.017205	0.016923	0.0066977	0.0079062	0.0048676	-0.0083277	-0.0046531	0.032261	-0.039408	0.0024769	0.010040	-0.015672	-0.019495	-0.0036533	-0.029091	-0.037409	-0.015008	0.0055019	-0.0065244	0.011544	-0.015880	0.0034791	0.029483	-0.059684	0.019368	-0.0098972	0.0020667	-0.0099714	0.010032	0.0034078	-0.00070355	0.055036	0.0057179	0.0038586	0.0024425	0.050608	-0.0093313	0.049906	0.024017	0.0053410	-0.0062197	0.033822	0.0041115	0.0022290	-0.027558	0.0036354	0.027678	0.044320	-0.022646	0.0047339	-0.0085629	-0.043857	-0.015981	0.022409	0.036723	0.031707	0.023832	0.042183	0.011078	0.0049420	-0.019894	-0.034023	0.0015353	0.0058861	0.0045633	0.0092874	-0.010220	-0.032293	0.0075256	-0.0070390	-0.010865	-0.0038934	-0.024026	-0.021926	0.021693	0.013199	0.0097858	0.0071626	-0.0093595	0.022331	0.013995	-0.019296	0.021349	0.010217	0.0021103	-0.0031771	-0.010598	-0.017990	-0.0019331	0.024537	-0.047168	-0.048440	0.0064828	-0.0099160	-0.012311	0.0031556	-0.000035127	0.0081827	0.012299	-0.031469	0.033353	0.011681	0.0011237	-0.00064208	-0.0092840	0.00054252	0.014808	-0.016431	-0.017058	-0.0092014	0.0067949	0.017776	-0.023156	-0.011033	-0.010968	0.015866	0.013820	-0.0096508	-0.00049147	-0.0010931	-0.0021505	0.015440	-0.0048253	-0.0019223	-0.018146	0.023123	0.017116	0.012059	0.017114	0.0028937	-0.00034536	0.0099466	-0.0056940	0.012604	-0.011129	-0.0025238	0.010553	0.0088909	0.0023326	-0.00093851	-0.021036	0.012627	0.0025708	-0.0019632	0.0046164	0.015147	0.0015376	-0.011642	-0.010640	0.037225
S28.null	-0.019074	-0.013755	0.026419	-0.00048343	0.023907	0.042042	-0.0047841	-0.0038965	-0.015958	0.020119	0.043554	0.018803	-0.019134	0.021227	0.00012538	-0.0081777	-0.0074262	0.0033242	-0.010500	-0.0094673	0.023064	0.013355	0.040435	0.016593	0.018549	0.0033685	-0.032104	-0.010760	-0.021302	0.00065703	-0.0023919	0.011412	-0.010388	0.013710	0.011594	0.034384	-0.0086747	-0.021446	-0.020147	0.014073	0.0064334	-0.024518	-0.020155	-0.0019150	-0.0039659	0.0042599	0.012079	-0.0046213	0.016767	-0.040750	-0.032174	0.015326	0.037470	0.0012387	0.0084517	0.0078310	-0.00080777	-0.014258	-0.024923	-0.013319	0.0086336	-0.053658	-0.022042	0.032966	-0.0088029	-0.0092226	0.037612	0.024134	-0.018011	0.010229	0.015052	-0.020125	0.030788	0.026959	-0.011855	-0.0083084	-0.017007	-0.025518	0.0081599	0.0078732	0.031711	-0.00072151	-0.015298	0.0053501	-0.033954	-0.00066283	-0.023374	-0.000081664	0.0078965	-0.028513	-0.033053	-0.0089934	0.021147	-0.0054150	-0.012263	-0.0021431	-0.022806	-0.0013588	-0.010565	0.012800	0.028882	0.020607	0.0086767	-0.0099970	0.018905	0.024259	0.025178	0.0017334	0.0075008	-0.020084	-0.042877	0.025891	-0.0070586	-0.0021506	0.023818	0.025480	-0.011901	0.018790	-0.011375	0.032477	-0.015801	-0.0034484	0.0075626	0.016571	-0.0078909	-0.0081015	0.016071	0.018656	0.00066746	0.0012678	0.014620	-0.0018496	-0.014797	-0.016728	0.013848	0.014897	-0.012792	-0.016596	-0.015448	-0.0018344	0.021605	-0.014142	-0.038368	0.0090837	0.031789	-0.0058886	-0.014751	0.0014855	-0.016677	0.026580	-0.019511	-0.012478	0.0029371	-0.00076528	0.017377	0.012499	0.018695	0.00068760	-0.00070297	-0.030305	0.014686	0.022236	0.0069548	0.0034999	-0.0077404	-0.014163	-0.010444	0.014074	0.0081535	-0.048360	0.027669	-0.035373	0.011711	-0.024501	0.0011220	0.018221	0.032928	-0.00042242	0.0086931	0.012668	-0.0095137	0.0033900	0.013215	-0.0035933	0.019164	-0.021686	-0.014980	0.012546	-0.0028184	-0.015664	-0.0012551	0.033466	0.010131	-0.017481	0.0098381	0.0092617	-0.041846	0.021337	0.00014960	0.00098691	-0.0069130	0.00060003	-0.0074940	-0.016158	0.010394	-0.025369	-0.044639	0.012574	-0.040322	0.031308	-0.053214	0.012822	-0.036574	0.022998	0.0068695	-0.0030763	0.021924	-0.043409	-0.011796	-0.036377	0.0042830	0.011166	0.021576	0.011572	0.030677	0.033099	0.0029966	0.0047161	-0.017660	-0.0048183	0.011614	-0.0056110	0.023765	-0.015255	-0.011150	0.025739	0.033102	0.0023063	-0.0061635	-0.021188	-0.019629	0.010627	-0.023745	0.017571	0.023329	0.0032221	0.0028067	-0.0097321	-0.026355	0.0088875	0.015118	-0.038569	0.034003	-0.053503	0.0065767	-0.019687	0.00036306	0.024017	-0.0094119	0.0090578	-0.0090686	0.0055769	0.0047471	-0.00078507	-0.00047321	0.0087836	0.0066713	0.0032683	-0.013687	-0.012719	-0.019705	-0.032118	0.013406	0.0056957	-0.0050762	-0.0011638	0.010686
S29.null	0.025561	0.027524	-0.00081486	0.0084920	-0.011237	-0.052836	-0.010176	-0.0089280	0.0068504	-0.00067615	-0.012819	-0.0091932	-0.012690	-0.021520	-0.0091939	0.0083815	0.0019216	0.016263	-0.0018601	-0.0027515	-0.0064106	-0.013697	-0.044330	0.0078010	-0.033878	-0.0014086	0.0048476	-0.012120	0.0028365	0.00058791	0.024094	0.011314	-0.0041646	-0.018454	-0.0017950	-0.013011	-0.00051429	0.012603	0.039905	-0.015876	0.0061580	0.045436	-0.017593	-0.010613	0.018609	0.025123	0.0094587	-0.0052354	0.0043058	0.0056951	0.019947	0.0049326	0.0054382	0.016043	0.021155	0.0091491	0.0026243	-0.034210	0.013450	-0.0085920	0.0026946	0.0058089	-0.0046751	-0.010243	-0.00019101	-0.026038	-0.0082824	-0.0034572	-0.0013721	0.019328	-0.0018787	-0.011824	-0.00016651	0.020397	0.029792	0.0048070	0.012849	0.040360	-0.020609	0.0071064	-0.022210	-0.014967	0.019857	-0.055348	-0.013361	0.015228	-0.015788	-0.0015288	-0.00090290	0.026041	0.024838	0.017908	0.019922	0.0062199	0.027233	-0.014947	-0.0061541	-0.017897	-0.0044987	0.028024	-0.0071906	-0.025668	-0.016253	0.0088854	0.015868	0.0024565	-0.012539	0.0056982	0.026243	0.010163	0.0077882	0.012305	0.029709	0.043128	0.011496	-0.0044580	-0.0069392	-0.025840	0.044079	-0.023063	-0.0066130	0.0079019	-0.010085	-0.022785	0.023227	-0.047107	-0.012492	-0.0011177	0.029025	0.013086	-0.015798	0.010075	-0.021829	-0.016326	-0.0038603	0.019742	0.00075529	0.0093212	0.00087769	-0.016639	-0.0030554	-0.013066	0.038484	0.0081684	-0.032722	-0.0058817	0.043453	0.020032	0.021001	-0.00067324	-0.0045438	0.0012295	-0.025538	0.026061	0.024058	-0.019619	0.013550	-0.0030163	-0.0068297	0.037463	0.0051026	-0.010346	0.0044206	0.0026805	0.0065484	0.033683	0.022200	0.023636	-0.020681	-0.0077247	-0.0054733	0.023000	-0.013013	0.011917	0.011552	-0.0026797	-0.040346	-0.0090876	0.023665	0.035118	-0.020987	0.025187	-0.0051069	0.048296	0.027061	-0.043919	0.020548	-0.062845	0.0078740	-0.022628	0.0071866	0.023860	0.018655	0.0021917	-0.0023968	-0.014136	0.0071344	-0.037945	-0.0010892	-0.0072994	-0.0046455	0.010382	0.00090845	0.0027629	-0.013831	-0.029550	-0.0014531	-0.029018	0.036591	-0.0013859	0.036533	-0.012506	0.031409	-0.00092324	-0.021876	0.026254	-0.0054557	0.027704	-0.023945	0.010338	-0.013395	-0.026973	0.024168	-0.0040653	-0.0021110	0.0041146	0.028670	-0.012228	-0.044619	-0.036338	0.030303	0.0012260	0.0090113	0.022050	-0.0049329	-0.010176	-0.011118	0.016828	-0.016410	0.012729	0.031916	-0.0081559	0.014305	0.0090015	0.010242	-0.011360	-0.016424	-0.017761	0.0066437	0.014229	0.013340	-0.0016533	0.016242	0.0087929	-0.021398	0.019097	-0.031125	0.0019121	0.029616	0.0055171	0.023410	-0.015226	0.0012989	0.0017196	-0.0017757	-0.017170	-0.0075150	-0.0082358	-0.0021636	0.0054525	0.017292	-0.0012216	0.017025	-0.0059041	0.0075549	-0.0045969	-0.0047697
S30.null	-0.036561	-0.027321	-0.0048239	-0.0065833	0.026554	-0.0026912	0.033234	0.0043128	-0.0014990	-0.012539	0.00080503	0.0027256	-0.0015806	0.032588	0.0068957	0.030944	-0.0020864	-0.0086866	-0.0042207	0.021451	0.010844	-0.00028035	0.049714	-0.022268	-0.0017490	0.0071176	-0.0071395	0.016934	0.016156	0.014641	-0.012259	0.00065159	-0.0072714	0.010616	0.013700	-0.010621	0.0048196	-0.011551	-0.010088	0.024451	0.010355	-0.031281	-0.0088978	0.011411	-0.0064745	0.0050033	-0.0026126	-0.0073139	-0.0026271	-0.011103	-0.015064	0.00044524	-0.0024382	-0.0082599	-0.0068834	0.0090516	0.013623	0.021912	-0.035479	0.0047977	0.0027633	-0.00066102	0.010050	0.0058383	0.012100	0.031146	0.0032958	-0.019359	0.0065426	-0.014465	0.023095	0.0026090	0.027879	-0.0084802	-0.015242	0.028226	-0.014400	-0.025957	-0.0036665	-0.0021057	-0.011900	0.035698	0.013814	0.014153	0.0025305	-0.014364	-0.0019035	0.00070319	-0.00065590	-0.024929	-0.034037	0.0077550	-0.013435	-0.027987	-0.020475	-0.0071701	0.00094277	-0.021482	0.017403	-0.0043524	-0.012845	0.016860	-0.012799	0.010921	0.015916	-0.0079140	0.038435	-0.0026919	0.015730	-0.050582	-0.015502	-0.00095070	-0.0096654	0.0024830	-0.0098250	0.017229	0.010734	-0.0023759	-0.0026303	0.0097937	0.032776	0.0030216	0.011313	0.036224	0.020013	0.041364	0.0029272	0.0061264	0.0041594	-0.019059	0.0076889	-0.023069	-0.0030153	-0.0063326	-0.014281	-0.0014613	-0.0049726	-0.012628	0.0057776	-0.027406	-0.0016731	-0.0019207	-0.0073113	-0.038693	-0.0021931	-0.015407	-0.023157	-0.025376	-0.050565	0.0054966	0.014428	0.010966	-0.014077	-0.051088	-0.0057947	0.020699	0.016518	0.010471	0.00081112	-0.011280	0.027416	0.017306	0.022561	0.0096509	0.027072	-0.022697	-0.0063929	0.026647	0.037258	-0.0087918	-0.036534	-0.020948	-0.0035147	0.0058203	0.011503	-0.019633	0.028219	-0.0054883	0.014643	0.010751	-0.018046	-0.027142	0.021740	-0.034675	0.012482	0.028073	-0.030198	0.052838	0.027931	0.041078	0.0038844	-0.014659	0.00031089	0.037284	-0.012598	0.0078491	0.0071290	0.017459	-0.0047977	-0.013691	0.018952	-0.0064966	-0.027004	-0.025400	-0.021544	0.013080	0.021987	0.014613	0.0036114	0.00099020	0.010998	0.031881	0.0032893	-0.0073432	0.030411	-0.0082980	-0.037638	-0.0027707	-0.023429	-0.0057673	-0.033702	-0.033344	-0.0084895	-0.0082683	0.0043914	0.014460	-0.036486	0.028044	0.023841	0.024733	-0.026999	-0.025738	-0.0049031	0.000060513	0.022157	0.0077641	-0.030255	-0.0011978	0.031334	-0.011454	-0.019395	0.035969	0.0044188	0.0087409	-0.0035705	-0.015321	0.021602	0.015383	0.0062332	-0.027818	-0.017421	-0.015006	-0.021833	-0.014662	0.018268	-0.017830	-0.0036198	-0.00010419	-0.021126	0.0070462	-0.020622	0.010749	0.0014743	0.0052710	0.0068596	0.0045367	0.0027912	0.0043062	-0.0026927	0.010990	-0.013217	0.0038845	-0.012748	0.0016249	0.0021201	-0.0076808	0.0042571
S31.null	0.013177	-0.00016138	-0.00037855	-0.020080	-0.025246	-0.019584	0.031578	0.015931	0.0045977	-0.041882	-0.017328	0.029950	-0.0086553	-0.011525	0.041819	-0.038177	0.0065802	0.0079720	-0.014918	-0.00044619	-0.021789	0.011880	0.017648	0.041827	-0.040149	0.016451	-0.0082134	0.018601	0.021247	0.013644	-0.028394	0.012329	-0.011719	0.016117	-0.014006	0.00042448	0.0011760	-0.0074620	-0.019191	0.016127	-0.0054269	0.018849	0.0073118	-0.0040118	0.026437	0.025620	0.016004	0.035026	0.013489	-0.038298	-0.0063700	0.015803	-0.020630	0.0027295	0.0060431	0.011331	-0.039835	-0.0043836	0.030000	-0.0011848	0.021797	0.034469	-0.0020291	-0.020575	0.014300	0.019753	-0.00070589	-0.018490	-0.0073128	-0.018309	0.023314	0.027207	-0.024272	-0.0090373	-0.0086035	-0.029837	-0.013216	-0.014166	-0.010566	0.012306	-0.054154	0.019348	-0.0013838	0.014793	0.021545	0.048726	-0.0018743	-0.0025253	0.0041252	-0.017040	-0.0089034	-0.010071	-0.020295	-0.021558	0.010142	-0.022504	-0.0052293	0.017224	0.0024272	0.046499	0.0032300	-0.010669	0.00068057	-0.0091497	-0.0023931	0.0019743	0.0067474	-0.0048384	0.014886	-0.0043955	0.017256	0.020180	0.014554	-0.026324	0.029804	0.00030688	-0.017863	-0.027026	0.013070	-0.0076257	0.034204	0.022620	0.0049904	0.039976	-0.025207	0.0059906	0.0056829	0.036534	-0.0044086	-0.053883	-0.029211	0.0016005	-0.0025728	-0.029458	-0.027155	-0.0029651	-0.0079818	0.00062473	0.0014044	0.021820	-0.0099608	0.0036798	-0.017108	-0.0077773	0.0086945	-0.013261	-0.0080206	0.0023527	-0.064842	-0.010899	0.045688	-0.012572	0.019438	-0.013832	-0.0073943	-0.0072995	-0.031415	-0.0073635	0.011557	-0.013899	0.0063318	0.027540	-0.026266	-0.0070930	0.0078532	-0.020116	-0.00058251	0.019911	-0.023243	0.0069898	-0.035242	-0.015650	0.026925	0.011011	0.0011864	-0.027436	-0.00092666	0.0028695	0.020912	-0.020117	0.0050345	-0.0079389	-0.00034048	-0.0089991	0.0077631	-0.00041827	0.0077628	-0.016999	-0.0065250	0.015074	-0.017081	0.011461	-0.011682	0.011659	-0.019594	0.022460	-0.0037179	-0.018246	0.027326	-0.028785	0.022113	-0.018865	-0.013642	-0.012937	0.011174	-0.0048196	0.0030836	-0.0087110	-0.0028631	0.011052	0.013357	0.039601	0.0027515	0.029590	0.024815	-0.0067774	0.019945	0.0068396	-0.011098	0.0040069	0.016411	-0.033012	0.015272	-0.016326	0.0048228	-0.017881	-0.0063928	0.028864	0.025740	-0.0058465	-0.0073799	-0.0011871	0.013140	-0.0045162	-0.0032189	0.036173	0.0039750	0.015300	0.035835	-0.010209	-0.012368	0.0082091	-0.010224	-0.0034671	-0.029929	0.0014170	-0.0037121	0.013655	-0.026077	0.0020634	-0.0068326	-0.0052312	-0.011781	0.010240	0.033806	-0.0023835	0.030118	0.0018969	-0.017058	0.0057143	0.0022595	0.0061602	-0.011718	-0.019680	-0.0040584	0.011934	-0.045880	0.054346	0.0013415	0.039585	0.039055	-0.059741	0.0014692	-0.010910	0.0016141	-0.0049702	0.0036112
S32.null	0.014398	-0.0051559	0.0075497	0.0073026	-0.014596	-0.016109	0.039749	0.041681	0.0022591	-0.037505	-0.012150	0.027876	-0.0036849	0.021952	0.024588	-0.029961	-0.013875	0.0066459	-0.019549	-0.0074044	-0.018613	-0.0025542	0.013131	0.011966	-0.022103	0.021831	-0.013580	0.016018	0.0036114	0.018992	-0.036518	0.028878	-0.015792	0.0031601	-0.025884	-0.00059569	0.0052985	0.0010901	-0.0077986	0.010075	0.0025851	0.013658	0.013278	-0.0021154	0.033755	0.021152	0.0075692	0.022962	-0.0032738	-0.053434	-0.0054309	0.018959	-0.020511	0.0080314	-0.0065661	0.0083581	-0.033028	-0.010784	0.021073	-0.0054095	0.017565	0.036720	-0.012544	-0.025173	0.0055638	0.020304	0.00010731	-0.036375	-0.020333	-0.030356	0.026141	0.028673	-0.024795	-0.010024	-0.010078	-0.012682	-0.0047444	0.0022041	0.0031189	0.026099	-0.039789	0.030805	-0.0068378	0.0076654	0.018442	0.040375	0.0032329	-0.020836	-0.017097	-0.035009	-0.022886	-0.0078839	-0.021505	0.0016289	0.032053	-0.0094094	-0.0084032	0.023993	0.022444	0.014841	-0.0038530	0.0013002	-0.010987	-0.012891	0.0064239	0.0024058	0.047778	-0.011018	-0.010130	0.010348	-0.0024211	0.013661	0.0021298	-0.030418	0.030262	0.0058232	0.0032614	-0.043308	0.0040917	-0.027699	0.030511	0.018762	-0.010420	0.039354	-0.021812	0.020923	0.014312	0.060632	0.014318	-0.026663	-0.029577	0.0039546	-0.0030332	-0.010573	-0.017978	-0.021227	-0.038154	0.014767	0.0077909	0.033830	-0.010731	-0.028041	-0.039829	-0.012201	0.020877	0.00033412	-0.0093281	0.0085212	-0.041981	0.022664	0.027802	-0.0072789	0.018335	-0.0044956	-0.013266	-0.0015310	-0.0084612	0.00028914	-0.012713	-0.026649	0.021911	0.012346	-0.017114	0.012023	0.025365	-0.026879	0.0082801	0.037217	-0.0049829	0.010923	-0.039339	-0.0070830	0.027116	-0.0036956	0.0089950	-0.015796	-0.010299	-0.010404	0.028297	-0.0058747	0.0062239	-0.015794	-0.0036998	0.014857	-0.010305	0.0041324	-0.0055302	0.012021	-0.013325	0.0030542	-0.017897	0.0042498	-0.0079034	0.00053161	-0.028298	0.026542	-0.0099891	0.0088756	0.016551	0.0022681	0.013415	-0.0052478	-0.011959	-0.050193	0.031454	-0.014767	0.028889	-0.0029498	-0.0049769	0.019707	-0.0068452	0.028635	-0.0045513	0.024788	0.020487	-0.0013836	0.012219	-0.0071764	0.013368	0.023104	-0.0078646	-0.026034	0.010627	-0.012966	0.0037215	-0.017494	-0.0066066	0.025392	0.037800	-0.00093161	-0.0042133	-0.0065576	-0.0074930	-0.0058642	0.0082170	0.010501	-0.025176	0.0085378	0.011435	-0.0047859	-0.012774	-0.00032537	-0.0082298	0.0035586	-0.023126	-0.0032331	0.015639	-0.011868	-0.017070	0.0055718	0.0045567	-0.0010620	-0.0033722	0.00098772	0.035655	0.0074141	0.027570	-0.0083162	-0.020630	0.0045798	-0.0013098	0.0013679	-0.0022122	-0.022031	-0.00080968	0.0038824	-0.0053690	-0.016638	0.0016369	-0.0072792	0.0056897	-0.0071896	0.0016181	0.0020194	-0.0041070	-0.0049540	-0.011627
S33.null	-0.033642	0.013331	-0.014031	0.022015	-0.0064492	-0.0068487	-0.039004	0.037478	0.0077429	0.027072	-0.0074027	0.0021778	0.0075431	0.027263	-0.0099286	0.019113	-0.026410	-0.012128	-0.00025139	0.012596	0.0099879	-0.014735	0.034896	0.0080634	0.0079153	-0.0094476	-0.021612	-0.041900	0.0022920	-0.0022699	-0.0070182	0.028746	0.018573	0.015520	0.014050	-0.025418	-0.016852	0.035730	-0.018600	0.0079774	0.041697	-0.0012657	0.0095490	0.0054495	-0.012288	0.0063668	-0.0079850	-0.0080221	0.0075681	0.012004	0.0062666	0.015763	-0.010090	-0.012380	-0.016157	0.0074647	0.031807	-0.021921	0.028514	0.011417	-0.0085900	-0.0043787	-0.019396	-0.0022322	-0.0041962	0.025352	0.015792	-0.023978	0.0050070	-0.032785	-0.0023107	0.017357	0.020602	-0.0059612	0.0052867	0.023925	-0.010667	0.017191	0.025671	0.047086	0.017588	-0.060248	0.010966	0.015625	-0.018564	-0.012957	-0.025450	-0.017071	0.0074621	-0.017044	0.0055547	-0.023204	-0.0040014	0.019204	0.042662	-0.029482	-0.010841	-0.0082694	0.0041962	-0.0081055	-0.016981	-0.0071269	0.021931	0.0037953	0.019312	0.0093817	0.0053036	-0.016412	-0.013005	0.0077429	-0.029819	0.016553	-0.023122	0.029451	-0.028503	0.0087418	-0.017469	-0.041898	0.0036296	0.0000023560	0.0010842	-0.0065052	-0.020510	0.0076951	0.0066678	0.0044151	0.022935	-0.0034749	-0.0032698	0.013568	-0.0099890	0.022915	0.022771	0.00032452	-0.0080840	-0.012528	-0.0090592	-0.0033721	0.0091889	0.0019774	-0.0092711	-0.016297	0.0067774	-0.0011343	-0.015393	0.032164	0.018143	-0.014910	-0.014884	-0.0037822	-0.0098046	-0.0068034	0.0054701	-0.0026529	0.0022246	-0.012961	0.025240	0.027283	-0.0019023	-0.00020410	0.0028660	-0.00096892	-0.0024855	0.014736	-0.0055594	-0.0099181	0.031528	0.024344	-0.016557	0.023524	-0.011069	-0.022297	0.0059510	-0.0023911	0.0023899	0.014758	-0.011076	-0.024821	-0.0052617	0.014217	-0.046724	-0.025027	-0.015807	0.0091071	-0.0042763	0.037127	-0.024545	0.010500	-0.0064064	-0.0060254	-0.0020310	0.015524	-0.0049026	-0.025998	-0.015280	-0.0075976	0.0082196	0.035453	0.0090956	0.0036128	0.013515	0.0030521	0.0075241	0.0070955	-0.013455	0.0049103	-0.010805	-0.033406	0.011763	0.0017649	-0.011841	-0.0040523	-0.023151	-0.023987	0.0016972	0.0018901	-0.0077496	-0.0086270	0.028015	-0.0015361	0.033008	-0.0034629	0.0027939	-0.0011121	-0.0052878	0.039781	-0.024431	-0.0097244	-0.011231	0.00084699	0.0030198	-0.0068450	0.021149	-0.0016414	-0.0057027	-0.029625	0.0050376	-0.0093824	0.0046261	0.0015700	0.0046545	0.0067480	0.000087045	0.019596	-0.018410	-0.042820	0.0088149	-0.00039842	-0.0071966	0.0088213	-0.0052067	0.0080479	-0.041799	-0.014846	-0.018418	-0.0043970	-0.028499	0.0080586	0.0082316	0.011266	-0.0015209	-0.012708	-0.0029769	-0.00090923	0.013523	0.000083351	-0.0079055	-0.0021909	-0.0080047	-0.0056086	-0.0053741	0.015049	-0.0074947	-0.0065314	0.0017628	0.0046719	-0.0069321
S34.null	-0.034629	0.019897	0.035159	-0.012273	-0.023119	-0.010989	-0.048107	0.028656	-0.021163	0.025708	-0.014900	0.0089768	-0.0028480	0.012337	-0.0068026	0.0032109	-0.0026733	-0.0061932	0.017144	0.015354	0.010628	-0.021180	0.028251	0.0028883	0.0093506	-0.0093184	-0.011980	-0.036152	0.012441	-0.0041351	-0.015334	0.027042	0.011351	-0.0025556	0.026684	-0.024265	0.010637	0.028603	-0.015802	0.018771	0.019566	-0.0078779	-0.0068792	0.0085867	-0.024323	-0.010480	-0.021090	-0.024072	-0.0095874	0.032497	0.022083	0.0050318	0.0043404	0.017527	-0.018698	-0.023616	0.018908	-0.0056402	0.036898	0.0014711	-0.020185	-0.0019659	-0.037118	-0.032235	0.0077733	-0.0089399	0.000032141	0.0033912	0.019385	-0.0026129	0.0040637	0.0053968	0.032843	-0.0081213	0.0078172	0.0060940	-0.016706	0.015924	-0.0034276	-0.0073750	-0.015309	-0.030864	0.0063018	-0.0058207	-0.0092704	-0.018904	-0.020229	0.0035316	-0.0066465	0.010973	0.00018412	0.0033205	-0.0045830	-0.0079360	0.011156	-0.0052265	0.0073823	-0.010347	0.0055964	-0.010277	0.0056123	0.025239	0.024106	0.017448	0.0082771	0.0065871	-0.013635	-0.026753	0.0033543	-0.0018366	-0.012413	0.016049	0.011248	0.038226	-0.010042	0.0051047	-0.037813	-0.038526	0.010136	-0.000040857	0.0067453	-0.010762	0.011120	-0.0066943	0.025875	-0.039477	0.013070	-0.0056847	-0.0090712	0.00074875	0.0069805	0.0049127	0.019673	-0.0035702	0.023138	0.024627	0.00073693	-0.013461	0.0078888	-0.0038511	-0.019223	-0.0049262	0.010705	0.012930	-0.0086549	-0.010836	0.013230	0.0099421	-0.00090333	0.013249	-0.0022944	0.0015108	0.0022489	0.0010190	-0.017504	0.0066805	0.014092	0.0010338	0.014381	0.010225	0.0052858	-0.020506	0.0060794	0.00094966	0.015862	0.012045	-0.0065375	-0.0081671	-0.014654	-0.0050338	0.039520	-0.0087913	0.033431	-0.0094443	0.0087434	-0.0078790	0.0016461	0.00011157	-0.020507	0.00058529	-0.019483	0.012560	0.014226	-0.0017299	-0.0046757	-0.0077944	-0.026529	0.019715	0.016425	-0.020326	-0.0099615	0.029891	-0.0044397	-0.0053933	0.013303	0.0040082	0.022468	0.023951	0.012308	0.0095547	0.018036	-0.016766	-0.00045459	0.022827	-0.0082894	-0.0071378	-0.016797	-0.011141	0.021062	-0.020937	-0.024613	-0.0080023	0.0077660	-0.013533	0.0037969	-0.019376	0.0084877	-0.010499	0.015845	-0.017963	0.032946	0.0076331	-0.013179	-0.0014210	0.0091773	0.025793	-0.0045558	-0.013873	-0.023514	0.010934	0.027205	0.015986	0.025583	0.023043	-0.020154	-0.029062	0.00019497	-0.014725	0.0075262	0.0044205	-0.0058188	-0.0044852	0.0025776	-0.013833	0.0073197	-0.0023172	0.0054763	0.0059911	0.018441	-0.00075285	-0.016841	0.014808	-0.030853	-0.025965	-0.021888	-0.0067458	-0.019073	0.0087801	0.032659	0.0016794	-0.0029007	-0.011604	-0.0065382	0.013119	0.023818	-0.017001	-0.0030544	-0.024596	-0.0053848	-0.015798	-0.021845	0.010902	0.0010379	-0.0034768	0.0041631	0.011244	-0.0035229
S35.null	-0.020801	-0.0043355	-0.064355	0.0058449	0.0030881	0.0014412	-0.0058601	-0.00023897	0.048202	0.0092188	-0.015610	-0.0014406	0.0080178	0.0014310	-0.0022402	0.016016	-0.00018336	-0.0057535	0.0048787	-0.0022149	-0.0065095	-0.014701	-0.0037092	0.0069907	0.0023150	-0.012743	0.013030	-0.0088831	-0.0022411	-0.010620	0.028895	-0.0040620	0.014080	0.020994	0.0085085	-0.023913	-0.000046528	0.0036882	0.00084172	0.018670	0.0062997	0.018544	0.025054	0.0094998	-0.012629	-0.0085180	0.017393	0.019758	-0.0046709	0.0042010	-0.00083349	0.0097392	0.0058770	0.0099859	0.0050438	0.0086313	0.0039213	-0.0034848	-0.016001	0.022831	0.00010743	-0.020964	0.0031986	0.027985	-0.0021245	0.040787	0.014555	-0.030662	0.0066567	-0.015251	0.0030402	-0.0027635	-0.0036849	-0.010094	-0.0093664	0.0040472	0.015613	-0.024546	0.022783	0.016882	0.030886	-0.0063593	-0.0066755	0.0027716	-0.035745	-0.0080127	0.015793	-0.0075039	-0.0038895	0.032590	0.031894	-0.018173	-0.012315	-0.0053109	0.015610	-0.012150	-0.0087740	-0.0018951	0.017935	-0.011755	-0.011079	-0.038765	-0.018113	-0.021989	-0.0016687	-0.000026410	0.035656	-0.015786	-0.011963	-0.020760	-0.016489	0.000093780	-0.016502	-0.027142	-0.0074942	0.016057	0.040542	0.015686	-0.019891	-0.0063546	-0.0051452	-0.027739	-0.015063	0.0033592	-0.010107	0.026529	-0.0081481	0.0088744	-0.0030653	-0.0057294	0.0058239	-0.011798	0.0096974	-0.023818	-0.018632	0.014114	-0.0053001	-0.021991	0.0023852	0.011410	-0.011512	0.0078911	0.021527	-0.010363	-0.020000	-0.0011933	0.0057646	-0.039146	-0.0096962	0.0057961	0.00096484	-0.018371	0.037602	-0.0020709	-0.028086	-0.0046849	0.015765	0.018373	-0.0030724	0.028778	-0.0016987	-0.00071248	-0.024847	0.023379	-0.020421	-0.013025	0.014518	-0.0065680	0.0060032	0.055338	-0.0026424	-0.024985	-0.0069583	-0.0065533	-0.033806	0.027495	-0.029087	0.012881	-0.022871	0.028481	-0.025321	-0.0064584	-0.029214	0.022238	-0.0023117	0.046461	0.011953	0.0079119	-0.014774	0.023935	-0.014408	-0.027764	-0.0074069	-0.010453	0.0047539	-0.035619	0.016688	0.033769	0.0022722	0.024746	-0.0016588	0.019515	0.038539	0.00021431	-0.045085	-0.0072419	0.028508	0.00016167	-0.021928	0.025826	0.0028185	-0.0079317	-0.012842	-0.014102	0.014764	0.030313	-0.053161	0.026931	0.016574	-0.0012607	0.031974	0.027516	0.022392	-0.012459	-0.021339	-0.00094577	-0.048435	-0.029815	0.034583	-0.024087	-0.013664	-0.0059228	0.017361	-0.036762	-0.0062491	-0.0096149	-0.0098858	-0.068106	0.0043386	0.019728	0.046602	-0.029967	0.0049277	-0.016159	-0.061853	0.0097555	-0.0031625	0.041552	0.020978	0.0062539	-0.022008	0.076131	-0.068640	0.064577	-0.031966	0.023262	0.028967	-0.018196	0.025169	-0.0079067	-0.0033750	0.010548	-0.0091757	0.022573	-0.00058203	0.0047855	-0.0063203	0.025067	0.0032712	0.037559	0.0040318	0.090957	-0.0052978	-0.0054264	0.0099325	0.00018690	0.011933
